{"learner":{"attributes":{"scikit_learn":"{\"_estimator_type\": \"classifier\"}"},"feature_names":[],"feature_types":[],"gradient_booster":{"model":{"cats":{"enc":[],"feature_segments":[],"sorted_idx":[]},"gbtree_model_param":{"num_parallel_tree":"1","num_trees":"100"},"iteration_indptr":[0,1,2,3,4,5,6,7,8,9,10,11,12,13,14,15,16,17,18,19,20,21,22,23,24,25,26,27,28,29,30,31,32,33,34,35,36,37,38,39,40,41,42,43,44,45,46,47,48,49,50,51,52,53,54,55,56,57,58,59,60,61,62,63,64,65,66,67,68,69,70,71,72,73,74,75,76,77,78,79,80,81,82,83,84,85,86,87,88,89,90,91,92,93,94,95,96,97,98,99,100],"tree_info":[0,0,0,0,0,0,0,0,0,0,0,0,0,0,0,0,0,0,0,0,0,0,0,0,0,0,0,0,0,0,0,0,0,0,0,0,0,0,0,0,0,0,0,0,0,0,0,0,0,0,0,0,0,0,0,0,0,0,0,0,0,0,0,0,0,0,0,0,0,0,0,0,0,0,0,0,0,0,0,0,0,0,0,0,0,0,0,0,0,0,0,0,0,0,0,0,0,0,0,0],"trees":[{"base_weights":[-7.365096E-5,1.0040956E0,-6.8290937E-1,-2.3034045E-1,1.5255922E0,-1.2011992E0,-2.7985972E-1,7.584883E-1,-8.2701415E-1,1.6513914E0,-1.669407E-1,-2.9886425E-1,-1.4262264E0,4.8785612E-1,-8.364787E-1,-1.764143E-1,1.2875445E0,-1.3612056E0,7.249703E-2,1.8728641E0,1.175371E0,1.3076991E0,-9.216684E-1,-9.417507E-1,1.104002E0,-1.5215077E0,2.2576436E-2,-1.578789E0,6.9343626E-1,-1.631904E0,-2.4812742E-1,-1.2162053E-1,1.7378141E-1,-1.5855713E-1,3.4318406E-2,6.9159664E-2,-1.4139675E-1,1.1332537E-1,1.9167913E-1,-5.795146E-2,1.3423032E-1,1.7900157E-1,-1.14403725E-1,2.8690526E-2,-1.764143E-1,-1.2875041E-1,1.2636535E-1,-7.892312E-3,1.909505E-1,-1.7238508E-1,-9.886531E-2,-1.3315633E-1,1.5320359E-1,-1.811643E-1,1.16587915E-1,2.6368678E-2,1.4931585E-1,1.3377122E-2,-1.771816E-1,8.005912E-2,-9.092519E-2],"categories":[],"categories_nodes":[],"categories_segments":[],"categories_sizes":[],"default_left":[0,0,0,0,0,0,0,0,0,0,0,0,0,0,0,0,0,0,0,0,0,0,0,0,0,0,0,0,0,0,0,0,0,0,0,0,0,0,0,0,0,0,0,0,0,0,0,0,0,0,0,0,0,0,0,0,0,0,0,0,0],"id":0,"left_children":[1,3,5,7,9,11,13,15,17,19,21,23,25,27,29,-1,31,33,35,37,39,41,43,45,47,49,51,53,55,57,59,-1,-1,-1,-1,-1,-1,-1,-1,-1,-1,-1,-1,-1,-1,-1,-1,-1,-1,-1,-1,-1,-1,-1,-1,-1,-1,-1,-1,-1,-1],"loss_changes":[1.1062025E3,4.207212E2,2.0026498E2,1.1556286E2,9.8046875E1,8.4811035E1,2.3180652E2,1.0080882E2,5.8707222E1,4.2869995E1,3.7573174E1,7.775057E1,4.6379517E1,9.805931E1,1.4667393E2,0E0,7.157067E1,2.9827225E1,4.3674145E1,7.2525024E0,4.133145E1,1.56182E1,2.3111177E1,4.6514297E1,2.605835E1,3.226172E1,4.6399895E1,1.5504005E1,7.118536E1,3.3203064E1,1.2679902E2,0E0,0E0,0E0,0E0,0E0,0E0,0E0,0E0,0E0,0E0,0E0,0E0,0E0,0E0,0E0,0E0,0E0,0E0,0E0,0E0,0E0,0E0,0E0,0E0,0E0,0E0,0E0,0E0,0E0,0E0],"parents":[2147483647,0,0,1,1,2,2,3,3,4,4,5,5,6,6,7,7,8,8,9,9,10,10,11,11,12,12,13,13,14,14,16,16,17,17,18,18,19,19,20,20,21,21,22,22,23,23,24,24,25,25,26,26,27,27,28,28,29,29,30,30],"right_children":[2,4,6,8,10,12,14,16,18,20,22,24,26,28,30,-1,32,34,36,38,40,42,44,46,48,50,52,54,56,58,60,-1,-1,-1,-1,-1,-1,-1,-1,-1,-1,-1,-1,-1,-1,-1,-1,-1,-1,-1,-1,-1,-1,-1,-1,-1,-1,-1,-1,-1,-1],"split_conditions":[-5.884916E-1,-4.2523646E-1,-1.8494672E-1,4.5730293E-1,2.1909463E0,4.6494287E-1,-2.5337646E0,-4.4690504E0,-1.0744393E0,-1.7363939E0,-2.9882793E0,5.765128E-1,3.7999358E0,-1.9182925E0,-6.4802575E-1,-1.764143E-1,1.082071E0,4.6662145E0,8.4387296E-1,-2.2706282E0,-1.6440212E0,2.421693E0,-5.522959E-1,3.6084588E0,-1.4999775E0,2.0766983E0,-1.2890216E0,2.2174344E0,2.1242578E0,-7.342413E0,-2.5292203E-1,-1.2162053E-1,1.7378141E-1,-1.5855713E-1,3.4318406E-2,6.9159664E-2,-1.4139675E-1,1.1332537E-1,1.9167913E-1,-5.795146E-2,1.3423032E-1,1.7900157E-1,-1.14403725E-1,2.8690526E-2,-1.764143E-1,-1.2875041E-1,1.2636535E-1,-7.892312E-3,1.909505E-1,-1.7238508E-1,-9.886531E-2,-1.3315633E-1,1.5320359E-1,-1.811643E-1,1.16587915E-1,2.6368678E-2,1.4931585E-1,1.3377122E-2,-1.771816E-1,8.005912E-2,-9.092519E-2],"split_indices":[17,15,28,2,26,17,25,4,3,17,17,0,24,7,3,0,18,4,8,28,28,22,27,7,24,7,0,3,28,24,5,0,0,0,0,0,0,0,0,0,0,0,0,0,0,0,0,0,0,0,0,0,0,0,0,0,0,0,0,0,0],"split_type":[0,0,0,0,0,0,0,0,0,0,0,0,0,0,0,0,0,0,0,0,0,0,0,0,0,0,0,0,0,0,0,0,0,0,0,0,0,0,0,0,0,0,0,0,0,0,0,0,0,0,0,0,0,0,0,0,0,0,0,0,0],"sum_hessian":[1.6112866E3,6.519974E2,9.592892E2,1.9380336E2,4.5819403E2,4.1878485E2,5.4050433E2,7.283215E1,1.2097121E2,4.2651706E2,3.1676996E1,8.405628E1,3.3472858E2,2.2722633E2,3.13278E2,1.2221833E1,6.0610317E1,7.557583E1,4.5395382E1,2.8908377E2,1.3743327E2,1.0475857E1,2.120114E1,5.786664E1,2.6189644E1,3.140263E2,2.070229E1,1.9954014E1,2.0727232E2,1.3244476E2,1.8083325E2,8.979306E0,5.1631012E1,6.684595E1,8.729881E0,3.2425274E1,1.2970109E1,1.7709187E1,2.7137457E2,1.1722983E1,1.2571029E2,8.979306E0,1.496551E0,8.979306E0,1.2221833E1,5.0383884E1,7.482755E0,1.0974708E1,1.5214935E1,2.259792E2,8.804709E1,1.0974708E1,9.727582E0,1.8706888E1,1.2471259E0,1.3568729E2,7.158502E1,9.727582E0,1.22717186E2,6.983905E1,1.109942E2],"tree_param":{"num_deleted":"0","num_feature":"30","num_nodes":"61","size_leaf_vector":"1"}},{"base_weights":[-6.612542E-4,8.476396E-1,-6.63119E-1,-5.480084E-1,1.2040826E0,-1.0420641E0,-1.8691392E-1,-1.0075387E0,8.7947786E-1,1.3339106E0,-3.0949962E-1,-1.5792513E0,-3.879791E-1,1.2874794E0,-4.58252E-1,-4.488925E-1,-1.7760487E-1,-6.6713315E-1,1.4208894E0,1.6311537E0,8.472243E-1,9.645108E-1,-1.0905938E0,-1.6279324E0,-3.032455E-1,3.9622936E-1,-1.2095314E0,1.4968365E0,-1.4485507E-1,-9.044894E-1,2.7903458E-1,-9.530716E-2,8.686507E-2,-1.5279461E-1,7.159239E-2,-1.124751E-1,1.6156349E-1,1.6637278E-1,3.5397958E-2,3.8887277E-2,1.3648818E-1,-1.4437218E-1,1.7062393E-1,1.10414185E-1,-1.5472071E-1,-1.6754733E-1,-3.1006632E-2,-1.4914785E-1,9.323517E-2,-3.1138781E-2,1.5528709E-1,-6.550504E-2,-1.7608742E-1,1.7158401E-1,-7.210081E-2,5.6869216E-2,-1.2354767E-1,6.2273562E-2,-1.5502302E-1],"categories":[],"categories_nodes":[],"categories_segments":[],"categories_sizes":[],"default_left":[0,0,0,0,0,0,0,0,0,0,0,0,0,0,0,0,0,0,0,0,0,0,0,0,0,0,0,0,0,0,0,0,0,0,0,0,0,0,0,0,0,0,0,0,0,0,0,0,0,0,0,0,0,0,0,0,0,0,0],"id":1,"left_children":[1,3,5,7,9,11,13,15,17,19,21,23,25,27,29,31,-1,33,35,37,39,41,43,45,47,49,51,53,-1,55,57,-1,-1,-1,-1,-1,-1,-1,-1,-1,-1,-1,-1,-1,-1,-1,-1,-1,-1,-1,-1,-1,-1,-1,-1,-1,-1,-1,-1],"loss_changes":[9.0182916E2,3.5072217E2,1.6241278E2,9.52441E1,1.1062134E2,1.7562268E2,1.6082297E2,4.6119865E1,3.0726875E1,7.336969E1,4.594956E1,1.6592896E1,1.4705183E2,3.797766E1,1.11787575E2,4.3752922E1,0E0,1.2882536E1,1.5034615E1,1.2712219E1,4.6450348E1,3.4042194E1,3.0208275E1,1.606659E1,1.8036015E1,9.636595E1,3.2888016E1,2.9682526E1,0E0,1.03793655E2,8.180882E1,0E0,0E0,0E0,0E0,0E0,0E0,0E0,0E0,0E0,0E0,0E0,0E0,0E0,0E0,0E0,0E0,0E0,0E0,0E0,0E0,0E0,0E0,0E0,0E0,0E0,0E0,0E0,0E0],"parents":[2147483647,0,0,1,1,2,2,3,3,4,4,5,5,6,6,7,7,8,8,9,9,10,10,11,11,12,12,13,13,14,14,15,15,17,17,18,18,19,19,20,20,21,21,22,22,23,23,24,24,25,25,26,26,27,27,29,29,30,30],"right_children":[2,4,6,8,10,12,14,16,18,20,22,24,26,28,30,32,-1,34,36,38,40,42,44,46,48,50,52,54,-1,56,58,-1,-1,-1,-1,-1,-1,-1,-1,-1,-1,-1,-1,-1,-1,-1,-1,-1,-1,-1,-1,-1,-1,-1,-1,-1,-1,-1,-1],"split_conditions":[-4.0053204E-1,-1.4606832E0,1.1950241E0,4.531591E0,2.1661146E0,-3.0455783E-1,-1.8570143E0,1.4770411E-1,-2.8416898E0,-1.7363939E0,-1.7661331E0,1.856546E0,1.676878E-1,3.763533E0,-2.8543845E-1,9.357649E-1,-1.7760487E-1,7.688408E-1,-8.7585396E-1,4.8286853E0,1.3632154E-1,1.2624599E0,-5.957797E0,3.9225008E0,3.621756E-1,-1.22175045E-1,4.660899E0,1.4775944E0,-1.4485507E-1,-8.412506E-2,1.819946E0,-9.530716E-2,8.686507E-2,-1.5279461E-1,7.159239E-2,-1.124751E-1,1.6156349E-1,1.6637278E-1,3.5397958E-2,3.8887277E-2,1.3648818E-1,-1.4437218E-1,1.7062393E-1,1.10414185E-1,-1.5472071E-1,-1.6754733E-1,-3.1006632E-2,-1.4914785E-1,9.323517E-2,-3.1138781E-2,1.5528709E-1,-6.550504E-2,-1.7608742E-1,1.7158401E-1,-7.210081E-2,5.6869216E-2,-1.2354767E-1,6.2273562E-2,-1.5502302E-1],"split_indices":[17,15,18,18,26,3,1,26,4,17,5,11,5,8,21,7,0,16,29,22,3,18,25,21,15,0,25,26,0,1,15,0,0,0,0,0,0,0,0,0,0,0,0,0,0,0,0,0,0,0,0,0,0,0,0,0,0,0,0],"split_type":[0,0,0,0,0,0,0,0,0,0,0,0,0,0,0,0,0,0,0,0,0,0,0,0,0,0,0,0,0,0,0,0,0,0,0,0,0,0,0,0,0,0,0,0,0,0,0,0,0,0,0,0,0,0,0,0,0,0,0],"sum_hessian":[1.6027821E3,7.026869E2,9.000952E2,1.428443E2,5.598426E2,5.0057184E2,3.9952335E2,1.082811E2,3.45632E1,5.1572485E2,4.411775E1,2.7406946E2,2.2650238E2,6.151562E1,3.3800772E2,6.3619125E1,4.4661976E1,8.901817E0,2.5661385E1,3.1871707E2,1.9700774E2,1.667881E1,2.7438938E1,2.63732E2,1.033748E1,1.1614986E2,1.1035252E2,5.7563835E1,3.951787E0,2.1042358E2,1.2758414E2,4.6211994E1,1.7407131E1,5.4222536E0,3.4795635E0,1.4842548E0,2.417713E1,3.104953E2,8.221779E0,1.0541814E2,9.15896E1,3.7045398E0,1.2974271E1,4.4812856E0,2.2957653E1,2.5428745E2,9.444545E0,5.164173E0,5.173306E0,7.251623E1,4.3633633E1,5.611061E1,5.424191E1,5.2596485E1,4.9673505E0,3.8471916E1,1.7195168E2,1.0795922E2,1.9624914E1],"tree_param":{"num_deleted":"0","num_feature":"30","num_nodes":"59","size_leaf_vector":"1"}},{"base_weights":[-1.2968762E-3,8.254388E-1,-5.6780803E-1,-8.77859E-2,1.3231162E0,-1.0232365E0,-2.1782334E-1,7.734425E-1,-6.223217E-1,1.4219099E0,-1.6575387E-1,-4.794825E-1,-1.3125532E0,-1.047994E0,1.8039443E-1,-1.1064494E0,1.232001E0,-1.08749E-1,-1.5446876E0,1.515215E0,7.1034676E-1,9.959175E-1,-1.25304E0,-9.230569E-1,6.613722E-1,-1.3801247E0,-9.201719E-2,2.0019321E-1,-1.5295159E0,1.147562E0,-1.22445054E-1,-1.6156934E-1,1.0619948E-1,-6.841791E-2,1.5148482E-1,5.232913E-2,-9.993927E-2,9.250741E-2,-1.7327768E-1,1.5421797E-1,-2.1177938E-2,1.3976404E-1,-4.2381696E-2,-1.1892082E-1,1.5749721E-1,1.15174584E-1,-1.5707482E-1,8.029958E-2,-1.13344386E-1,1.5753074E-1,-4.4361275E-2,-1.4135052E-1,7.895023E-2,-1.0679457E-1,1.4558713E-1,-1.2716185E-1,7.963123E-2,-1.6025706E-1,6.794943E-2,1.3608208E-1,-6.8248756E-2,-1.0402453E-1,4.7116153E-2],"categories":[],"categories_nodes":[],"categories_segments":[],"categories_sizes":[],"default_left":[0,0,0,0,0,0,0,0,0,0,0,0,0,0,0,0,0,0,0,0,0,0,0,0,0,0,0,0,0,0,0,0,0,0,0,0,0,0,0,0,0,0,0,0,0,0,0,0,0,0,0,0,0,0,0,0,0,0,0,0,0,0,0],"id":2,"left_children":[1,3,5,7,9,11,13,15,17,19,21,23,25,27,29,31,33,35,37,39,41,43,45,47,49,51,53,55,57,59,61,-1,-1,-1,-1,-1,-1,-1,-1,-1,-1,-1,-1,-1,-1,-1,-1,-1,-1,-1,-1,-1,-1,-1,-1,-1,-1,-1,-1,-1,-1,-1,-1],"loss_changes":[7.427533E2,2.931891E2,1.4977206E2,1.0562504E2,6.1637695E1,6.3658142E1,1.765216E2,7.714908E1,6.6851944E1,2.492102E1,3.518822E1,7.3226715E1,2.1823639E1,1.0432071E2,1.0597253E2,2.1334785E1,3.959774E1,5.228668E1,2.5074028E1,1.640625E1,3.74439E1,1.9015877E1,1.2752064E1,3.858213E1,4.1856915E1,1.9375366E1,2.4264568E1,4.405786E1,2.1261078E1,3.459265E1,1.5089746E2,0E0,0E0,0E0,0E0,0E0,0E0,0E0,0E0,0E0,0E0,0E0,0E0,0E0,0E0,0E0,0E0,0E0,0E0,0E0,0E0,0E0,0E0,0E0,0E0,0E0,0E0,0E0,0E0,0E0,0E0,0E0,0E0],"parents":[2147483647,0,0,1,1,2,2,3,3,4,4,5,5,6,6,7,7,8,8,9,9,10,10,11,11,12,12,13,13,14,14,15,15,16,16,17,17,18,18,19,19,20,20,21,21,22,22,23,23,24,24,25,25,26,26,27,27,28,28,29,29,30,30],"right_children":[2,4,6,8,10,12,14,16,18,20,22,24,26,28,30,32,34,36,38,40,42,44,46,48,50,52,54,56,58,60,62,-1,-1,-1,-1,-1,-1,-1,-1,-1,-1,-1,-1,-1,-1,-1,-1,-1,-1,-1,-1,-1,-1,-1,-1,-1,-1,-1,-1,-1,-1,-1,-1],"split_conditions":[-5.884916E-1,6.3531786E-2,-1.8494672E-1,2.7121842E-1,2.1909463E0,1.1145719E0,-6.104096E-1,-4.4690504E0,8.4387296E-1,3.369328E0,-1.8663378E0,5.765128E-1,3.7999358E0,-5.7200515E-1,-5.957797E0,1.5913172E0,5.969418E-1,-2.759059E-1,-7.8958054E0,3.9966261E0,9.669734E-1,1.1367416E0,-4.026106E0,-4.8172426E0,1.0687158E0,2.5759203E0,3.377881E-1,-5.445413E0,4.0300474E0,4.9217203E-1,-6.4802575E-1,-1.6156934E-1,1.0619948E-1,-6.841791E-2,1.5148482E-1,5.232913E-2,-9.993927E-2,9.250741E-2,-1.7327768E-1,1.5421797E-1,-2.1177938E-2,1.3976404E-1,-4.2381696E-2,-1.1892082E-1,1.5749721E-1,1.15174584E-1,-1.5707482E-1,8.029958E-2,-1.13344386E-1,1.5753074E-1,-4.4361275E-2,-1.4135052E-1,7.895023E-2,-1.0679457E-1,1.4558713E-1,-1.2716185E-1,7.963123E-2,-1.6025706E-1,6.794943E-2,1.3608208E-1,-6.8248756E-2,-1.0402453E-1,4.7116153E-2],"split_indices":[17,15,28,2,26,17,7,4,8,22,5,0,24,8,25,6,18,26,18,6,10,18,1,12,5,27,0,18,0,12,3,0,0,0,0,0,0,0,0,0,0,0,0,0,0,0,0,0,0,0,0,0,0,0,0,0,0,0,0,0,0,0,0],"split_type":[0,0,0,0,0,0,0,0,0,0,0,0,0,0,0,0,0,0,0,0,0,0,0,0,0,0,0,0,0,0,0,0,0,0,0,0,0,0,0,0,0,0,0,0,0,0,0,0,0,0,0,0,0,0,0,0,0,0,0,0,0,0,0],"sum_hessian":[1.583876E3,6.4383746E2,9.400385E2,2.2739581E2,4.1644165E2,4.0764896E2,5.323895E2,8.691461E1,1.404812E2,3.9057037E2,2.5871286E1,1.4249504E2,2.6515393E2,1.7206056E2,3.6032898E2,1.6766462E1,7.014815E1,9.095527E1,4.9525932E1,3.4429468E2,4.6275684E1,1.2548418E1,1.3322868E1,1.0273981E2,3.9755238E1,2.5112059E2,1.4033329E1,4.8061413E1,1.2399915E2,8.5257095E1,2.750719E2,1.3784235E1,2.9822261E0,8.840216E0,6.1307934E1,5.3442535E1,3.7512737E1,3.2275357E0,4.6298397E1,3.39107E2,5.18769E0,2.866975E1,1.7605932E1,2.4079711E0,1.0140448E1,1.2483952E0,1.2074473E1,1.0856267E1,9.188354E1,2.1525673E1,1.8229565E1,2.4765878E2,3.46182E0,8.796982E0,5.2363477E0,1.3527932E1,3.4533478E1,1.2029537E2,3.703783E0,7.658852E1,8.668584E0,1.0773926E2,1.6733264E2],"tree_param":{"num_deleted":"0","num_feature":"30","num_nodes":"63","size_leaf_vector":"1"}},{"base_weights":[-1.4732757E-3,8.5624105E-1,-4.6291122E-1,-4.5349494E-1,1.1514962E0,4.6654966E-1,-6.2532663E-1,-1.0153916E0,6.317222E-1,1.2537374E0,5.5130225E-2,-1.2019057E0,1.0842885E0,6.3570803E-1,-7.610971E-1,-1.1366714E0,1.21947005E-1,1.1132767E0,-6.2967175E-1,7.787363E-1,1.401174E0,-1.0698757E0,8.119581E-1,-1.516331E0,1.2810539E-1,-7.702007E-1,1.3845543E0,1.3988875E0,-1.1247611E0,-8.50566E-1,9.272055E-1,9.0319335E-2,-1.24921E-1,1.3729402E-1,-4.623821E-2,-1.4004421E-1,6.0611695E-2,-1.7454728E-1,1.0038161E-1,1.473752E-1,3.6944583E-2,4.6811204E-2,-1.5142529E-1,1.1812706E-1,-1.2703657E-1,-1.629949E-1,9.904461E-2,2.7985826E-2,-1.5785427E-1,1.4610587E-1,-1.282805E-1,3.2629933E-2,1.6002181E-1,1.2454177E-2,-1.5901068E-1,-5.0588943E-2,-1.1966222E-1,-1.0115286E-1,1.3971959E-1],"categories":[],"categories_nodes":[],"categories_segments":[],"categories_sizes":[],"default_left":[0,0,0,0,0,0,0,0,0,0,0,0,0,0,0,0,0,0,0,0,0,0,0,0,0,0,0,0,0,0,0,0,0,0,0,0,0,0,0,0,0,0,0,0,0,0,0,0,0,0,0,0,0,0,0,0,0,0,0],"id":3,"left_children":[1,3,5,7,9,11,13,15,17,19,21,23,25,27,29,31,-1,33,35,37,39,41,43,45,-1,47,49,51,53,55,57,-1,-1,-1,-1,-1,-1,-1,-1,-1,-1,-1,-1,-1,-1,-1,-1,-1,-1,-1,-1,-1,-1,-1,-1,-1,-1,-1,-1],"loss_changes":[6.16775E2,2.1132224E2,1.5325108E2,6.2227676E1,4.982611E1,1.5723619E2,1.4823218E2,1.9526192E1,2.2004028E1,2.7419434E1,3.4087223E1,3.4227962E1,6.2841415E1,1.1500314E2,1.1853784E2,1.5820175E1,0E0,1.1167107E1,1.0686668E1,5.7818043E1,2.2625366E1,1.1727535E1,1.9874634E1,1.2199234E1,0E0,1.4109169E1,2.1431168E1,1.2291962E1,1.53629875E1,8.775836E1,3.75962E1,0E0,0E0,0E0,0E0,0E0,0E0,0E0,0E0,0E0,0E0,0E0,0E0,0E0,0E0,0E0,0E0,0E0,0E0,0E0,0E0,0E0,0E0,0E0,0E0,0E0,0E0,0E0,0E0],"parents":[2147483647,0,0,1,1,2,2,3,3,4,4,5,5,6,6,7,7,8,8,9,9,10,10,11,11,12,12,13,13,14,14,15,15,17,17,18,18,19,19,20,20,21,21,22,22,23,23,25,25,26,26,27,27,28,28,29,29,30,30],"right_children":[2,4,6,8,10,12,14,16,18,20,22,24,26,28,30,32,-1,34,36,38,40,42,44,46,-1,48,50,52,54,56,58,-1,-1,-1,-1,-1,-1,-1,-1,-1,-1,-1,-1,-1,-1,-1,-1,-1,-1,-1,-1,-1,-1,-1,-1,-1,-1,-1,-1],"split_conditions":[-9.2218685E-1,-1.4000586E0,-1.6333859E0,1.0591218E0,1.9918611E0,-5.873082E-1,-7.837077E0,1.9358709E0,1.3643208E0,-1.3801599E0,2.8368852E0,9.537025E-1,-2.9951475E0,-2.9321763E-1,7.2899585E0,-5.544674E0,1.21947005E-1,5.8856404E-1,6.5403695E0,-1.7875428E0,4.2199726E0,-1.0699294E0,2.7166438E0,2.097805E0,1.2810539E-1,-8.0198574E-1,2.7286847E0,-8.340452E-2,-4.533248E0,1.1978745E0,-1.4272339E0,9.0319335E-2,-1.24921E-1,1.3729402E-1,-4.623821E-2,-1.4004421E-1,6.0611695E-2,-1.7454728E-1,1.0038161E-1,1.473752E-1,3.6944583E-2,4.6811204E-2,-1.5142529E-1,1.1812706E-1,-1.2703657E-1,-1.629949E-1,9.904461E-2,2.7985826E-2,-1.5785427E-1,1.4610587E-1,-1.282805E-1,3.2629933E-2,1.6002181E-1,1.2454177E-2,-1.5901068E-1,-5.0588943E-2,-1.1966222E-1,-1.0115286E-1,1.3971959E-1],"split_indices":[17,15,5,7,26,3,25,13,2,0,18,0,0,12,4,21,0,20,12,28,2,27,22,23,0,26,26,28,0,17,24,0,0,0,0,0,0,0,0,0,0,0,0,0,0,0,0,0,0,0,0,0,0,0,0,0,0,0,0],"split_type":[0,0,0,0,0,0,0,0,0,0,0,0,0,0,0,0,0,0,0,0,0,0,0,0,0,0,0,0,0,0,0,0,0,0,0,0,0,0,0,0,0,0,0,0,0,0,0,0,0,0,0,0,0,0,0,0,0,0,0],"sum_hessian":[1.5563693E3,5.441169E2,1.0122524E3,9.999747E1,4.4411942E2,1.502929E2,8.619595E2,6.592671E1,3.407076E1,4.061047E2,3.801472E1,4.035422E1,1.09938675E2,8.342514E1,7.7853436E2,6.2999302E1,2.9274094E0,2.4742424E1,9.328337E0,9.768177E1,3.084229E2,1.5122245E1,2.2892477E1,3.6163963E1,4.190255E0,1.5101897E1,9.4836784E1,5.8339725E1,2.5085413E1,7.398247E2,3.8709656E1,2.9265866E0,6.0072716E1,2.1352291E1,3.3901315E0,5.663028E0,3.6653087E0,7.4440365E0,9.023773E1,2.8775226E2,2.0670658E1,3.3779078E0,1.1744337E1,1.9811502E1,3.080973E0,3.4930542E1,1.2334207E0,6.8531938E0,8.248704E0,9.263218E1,2.2046008E0,9.6342125E0,4.8705513E1,7.006795E0,1.8078619E1,3.7188455E2,3.6794012E2,7.3282056E0,3.138145E1],"tree_param":{"num_deleted":"0","num_feature":"30","num_nodes":"59","size_leaf_vector":"1"}},{"base_weights":[-1.4357988E-3,1.005578E0,-3.4147245E-1,-3.9593178E-1,1.2090669E0,-1.2848098E0,-1.8659012E-1,-8.5114485E-1,8.4017783E-1,1.2597351E0,-2.3174039E-1,7.4025553E-1,-1.397826E0,-8.252994E-1,4.1951347E-2,-1.2212378E0,8.5064876E-1,-5.9705746E-1,1.5294348E-1,1.4032023E0,9.069604E-1,1.3129626E-1,-1.5200874E-1,1.366493E-1,-1.0893816E-1,2.911463E-1,-1.4514081E0,-1.2076517E0,-1.3346554E-1,-8.0553293E-1,2.9500034E-1,-1.5014397E-1,2.437493E-2,-8.73867E-2,1.4005256E-1,8.5601114E-2,-1.2274889E-1,1.5536933E-2,1.429186E-1,-1.746996E-1,1.129766E-1,-1.0076962E-1,1.2052142E-1,-1.4790581E-1,-4.1063232E-3,-1.48757845E-2,-1.3276583E-1,1.4457731E-1,-6.419318E-2,9.340113E-2,-1.1123792E-1,5.4463405E-2,-5.7876714E-2],"categories":[],"categories_nodes":[],"categories_segments":[],"categories_sizes":[],"default_left":[0,0,0,0,0,0,0,0,0,0,0,0,0,0,0,0,0,0,0,0,0,0,0,0,0,0,0,0,0,0,0,0,0,0,0,0,0,0,0,0,0,0,0,0,0,0,0,0,0,0,0,0,0],"id":4,"left_children":[1,3,5,7,9,11,13,15,17,19,21,23,25,27,29,31,33,35,-1,37,39,-1,-1,-1,-1,41,43,45,47,49,51,-1,-1,-1,-1,-1,-1,-1,-1,-1,-1,-1,-1,-1,-1,-1,-1,-1,-1,-1,-1,-1,-1],"loss_changes":[5.231585E2,1.1046817E2,1.6663531E2,2.8652878E1,2.4895325E1,3.786093E1,1.4341383E2,2.4206034E1,1.46495285E1,1.521283E1,2.6461853E1,1.1983061E1,1.4246124E1,6.8322174E1,1.5557774E2,1.2936779E1,8.01346E0,5.8268223E0,0E0,7.22641E0,5.932966E1,0E0,0E0,0E0,0E0,7.7796636E0,5.7192383E0,2.0975159E1,7.582773E1,9.008275E1,1.2214248E2,0E0,0E0,0E0,0E0,0E0,0E0,0E0,0E0,0E0,0E0,0E0,0E0,0E0,0E0,0E0,0E0,0E0,0E0,0E0,0E0,0E0,0E0],"parents":[2147483647,0,0,1,1,2,2,3,3,4,4,5,5,6,6,7,7,8,8,9,9,10,10,11,11,12,12,13,13,14,14,15,15,16,16,17,17,19,19,20,20,25,25,26,26,27,27,28,28,29,29,30,30],"right_children":[2,4,6,8,10,12,14,16,18,20,22,24,26,28,30,32,34,36,-1,38,40,-1,-1,-1,-1,42,44,46,48,50,52,-1,-1,-1,-1,-1,-1,-1,-1,-1,-1,-1,-1,-1,-1,-1,-1,-1,-1,-1,-1,-1,-1],"split_conditions":[-1.6982656E0,-1.859624E0,-2.1379943E0,4.6662145E0,4.8286853E0,-9.240413E-1,-1.03507E0,7.7952175E0,1.3773911E0,6.309606E-2,-4.4603977E0,1.8296967E-1,-1.9550612E0,-8.711294E-2,-1.3120953E0,1.2683092E0,-3.740818E-1,-6.800382E-1,1.5294348E-1,-1.4000586E0,-2.3364284E0,1.3129626E-1,-1.5200874E-1,1.366493E-1,-1.0893816E-1,7.117649E-1,2.5759203E0,-1.3820901E0,-5.3772867E-1,-2.3503895E0,1.0856892E0,-1.5014397E-1,2.437493E-2,-8.73867E-2,1.4005256E-1,8.5601114E-2,-1.2274889E-1,1.5536933E-2,1.429186E-1,-1.746996E-1,1.129766E-1,-1.0076962E-1,1.2052142E-1,-1.4790581E-1,-4.1063232E-3,-1.48757845E-2,-1.3276583E-1,1.4457731E-1,-6.419318E-2,9.340113E-2,-1.1123792E-1,5.4463405E-2,-5.7876714E-2],"split_indices":[17,15,22,4,22,5,28,18,5,26,24,19,23,0,7,13,10,2,0,15,0,0,0,0,0,19,27,16,5,8,26,0,0,0,0,0,0,0,0,0,0,0,0,0,0,0,0,0,0,0,0,0,0],"split_type":[0,0,0,0,0,0,0,0,0,0,0,0,0,0,0,0,0,0,0,0,0,0,0,0,0,0,0,0,0,0,0,0,0,0,0,0,0,0,0,0,0,0,0,0,0,0,0,0,0,0,0,0,0],"sum_hessian":[1.5258171E3,3.846687E2,1.1411484E3,4.865008E1,3.3601862E2,1.599077E2,9.8124066E2,3.578371E1,1.2866373E1,3.2472482E2,1.1293791E1,8.1591425E0,1.5174855E2,2.5789246E2,7.233482E2,2.9623747E1,6.1599627E0,4.213717E0,8.652656E0,2.287277E2,9.599712E1,5.1272326E0,6.1665583E0,6.2671824E0,1.8919599E0,4.5298247E0,1.4721873E2,1.6561647E2,9.227599E1,1.6581966E2,5.5752856E2,2.4846567E1,4.7771792E0,1.3468347E0,4.813128E0,1.166729E0,3.046988E0,4.8080096E0,2.239197E2,6.9051576E0,8.9091965E1,1.8287858E0,2.7010388E0,1.443402E2,2.8785338E0,1.7086977E1,1.485295E2,2.2025108E1,7.0250885E1,2.4557379E1,1.4126228E2,4.3393176E2,1.2359681E2],"tree_param":{"num_deleted":"0","num_feature":"30","num_nodes":"53","size_leaf_vector":"1"}},{"base_weights":[-1.591969E-3,6.190166E-1,-4.8207444E-1,-5.682233E-2,1.0580875E0,-8.146502E-1,-7.786654E-2,6.233587E-1,-5.6958634E-1,1.1556077E0,-2.986923E-1,-1.3010932E0,-2.4604364E-1,3.631619E-1,-7.1387506E-1,1.07398E0,-4.954136E-1,-1.1557984E0,2.2927523E-1,1.2515281E0,4.411647E-1,8.422709E-1,-1.1911818E0,-1.3503985E0,-7.938085E-2,1.9162151E-1,-1.3100879E0,1.3337693E0,7.292442E-2,2.4875373E-1,-1.019211E0,-7.759289E-2,1.22841E-1,5.360518E-2,-1.6070803E-1,-2.7692784E-2,-1.4646403E-1,1.0817362E-1,-3.2244753E-2,-1.4339197E-1,1.2656213E-1,1.1102927E-1,-6.3607834E-2,-1.0130733E-1,1.3258341E-1,9.695424E-2,-1.4403167E-1,-1.390212E-1,-3.0628625E-2,-1.2696548E-1,1.0703458E-1,-2.4501873E-2,1.2421097E-1,1.170179E-1,-1.4261177E-1,1.5079814E-1,-1.15926385E-1,-3.6035914E-2,6.382262E-2,-1.3976656E-1,6.930953E-2,-5.5148866E-2,-1.3409741E-1],"categories":[],"categories_nodes":[],"categories_segments":[],"categories_sizes":[],"default_left":[0,0,0,0,0,0,0,0,0,0,0,0,0,0,0,0,0,0,0,0,0,0,0,0,0,0,0,0,0,0,0,0,0,0,0,0,0,0,0,0,0,0,0,0,0,0,0,0,0,0,0,0,0,0,0,0,0,0,0,0,0,0,0],"id":5,"left_children":[1,3,5,7,9,11,13,15,17,19,21,23,25,27,29,31,33,35,37,39,41,43,45,47,49,51,53,55,57,59,61,-1,-1,-1,-1,-1,-1,-1,-1,-1,-1,-1,-1,-1,-1,-1,-1,-1,-1,-1,-1,-1,-1,-1,-1,-1,-1,-1,-1,-1,-1,-1,-1],"loss_changes":[4.462926E2,1.938617E2,1.13336655E2,9.039101E1,5.273456E1,1.2765558E2,1.0737599E2,5.6713005E1,6.9439064E1,2.4776642E1,2.8849194E1,1.4899231E1,1.00169975E2,6.361631E1,4.631482E1,2.373822E1,3.8335915E1,2.2764084E1,3.0144455E1,1.4126617E1,3.3354244E1,1.2636681E1,9.879005E0,9.52594E0,1.6038033E1,7.043694E1,1.9701302E1,2.4334702E1,4.313421E1,2.9164282E1,1.719503E1,0E0,0E0,0E0,0E0,0E0,0E0,0E0,0E0,0E0,0E0,0E0,0E0,0E0,0E0,0E0,0E0,0E0,0E0,0E0,0E0,0E0,0E0,0E0,0E0,0E0,0E0,0E0,0E0,0E0,0E0,0E0,0E0],"parents":[2147483647,0,0,1,1,2,2,3,3,4,4,5,5,6,6,7,7,8,8,9,9,10,10,11,11,12,12,13,13,14,14,15,15,16,16,17,17,18,18,19,19,20,20,21,21,22,22,23,23,24,24,25,25,26,26,27,27,28,28,29,29,30,30],"right_children":[2,4,6,8,10,12,14,16,18,20,22,24,26,28,30,32,34,36,38,40,42,44,46,48,50,52,54,56,58,60,62,-1,-1,-1,-1,-1,-1,-1,-1,-1,-1,-1,-1,-1,-1,-1,-1,-1,-1,-1,-1,-1,-1,-1,-1,-1,-1,-1,-1,-1,-1,-1,-1],"split_conditions":[-4.0053204E-1,2.1266676E-1,1.1950241E0,2.6235098E-1,2.1909463E0,-3.0455783E-1,7.516868E-1,1.0854354E0,-1.0744393E0,3.369328E0,-1.8663378E0,1.856546E0,4.9526467E0,-1.8570143E0,-1.3665893E0,-4.7100596E0,3.4900096E-1,-2.450634E0,-1.4954584E0,-5.3800983E0,9.669734E-1,1.1367416E0,-4.026106E0,3.9225008E0,3.0356836E-1,1.5860077E0,-3.2052805E0,3.763533E0,-2.8543845E-1,-1.2067728E0,1.3049579E0,-7.759289E-2,1.22841E-1,5.360518E-2,-1.6070803E-1,-2.7692784E-2,-1.4646403E-1,1.0817362E-1,-3.2244753E-2,-1.4339197E-1,1.2656213E-1,1.1102927E-1,-6.3607834E-2,-1.0130733E-1,1.3258341E-1,9.695424E-2,-1.4403167E-1,-1.390212E-1,-3.0628625E-2,-1.2696548E-1,1.0703458E-1,-2.4501873E-2,1.2421097E-1,1.170179E-1,-1.4261177E-1,1.5079814E-1,-1.15926385E-1,-3.6035914E-2,6.382262E-2,-1.3976656E-1,6.930953E-2,-5.5148866E-2,-1.3409741E-1],"split_indices":[17,15,18,12,26,3,26,2,3,22,5,11,25,1,15,4,8,17,5,1,10,18,1,21,22,21,5,8,21,0,1,0,0,0,0,0,0,0,0,0,0,0,0,0,0,0,0,0,0,0,0,0,0,0,0,0,0,0,0,0,0,0,0],"split_type":[0,0,0,0,0,0,0,0,0,0,0,0,0,0,0,0,0,0,0,0,0,0,0,0,0,0,0,0,0,0,0,0,0,0,0,0,0,0,0,0,0,0,0,0,0,0,0,0,0,0,0,0,0,0,0,0,0,0,0,0,0,0,0],"sum_hessian":[1.4946636E3,6.520997E2,8.425639E2,2.5715103E2,3.9494864E2,4.6168307E2,3.808808E2,1.10438614E2,1.4671242E2,3.686031E2,2.634554E1,2.4812437E2,2.135587E2,2.2516989E2,1.5571092E2,7.875683E1,3.1681787E1,8.436084E1,6.2351585E1,3.243098E2,4.4293293E1,1.1587845E1,1.4757693E1,2.383979E2,9.726471E0,1.5189911E2,6.1659584E1,5.1004852E1,1.7416504E2,3.7541042E1,1.18169876E2,5.757972E0,7.2998856E1,1.6702284E1,1.4979503E1,2.2429615E1,6.193122E1,2.4121326E1,3.823026E1,1.1671352E0,3.2314267E2,2.7303242E1,1.699005E1,2.1693654E0,9.418479E0,1.2267317E0,1.3530962E1,2.2932204E2,9.075872E0,4.7277145E0,4.9987564E0,1.0784119E2,4.405793E1,2.3495774E0,5.9310005E1,4.8042767E1,2.9620852E0,9.8800514E1,7.536452E1,7.5224876E0,3.0018557E1,4.926748E1,6.89024E1],"tree_param":{"num_deleted":"0","num_feature":"30","num_nodes":"63","size_leaf_vector":"1"}},{"base_weights":[-2.0596592E-3,8.915231E-1,-2.9480135E-1,-3.5235274E-1,1.0741268E0,-1.1682318E0,-1.5762496E-1,-7.752313E-1,7.767425E-1,1.1512177E0,2.6906258E-1,6.4979357E-1,-1.2715968E0,-4.710547E-1,2.3980534E-1,-1.116478E0,7.784846E-1,-5.5571115E-1,1.4100973E-1,8.285902E-1,1.2915844E0,-7.9160124E-1,8.667997E-1,-9.79374E-2,1.2129126E-1,2.882609E-1,-1.3234613E0,-1.0015681E-1,-1.2409221E0,9.5055866E-1,-2.5407526E-1,-1.2659368E-1,1.2155992E-1,-7.971752E-2,1.2780502E-1,7.7838704E-2,-1.13402866E-1,1.0497743E-1,-3.4817707E-2,1.3286974E-1,5.4316014E-2,4.5009665E-2,-1.3087425E-1,1.1826416E-1,-4.1706946E-2,-9.2677586E-2,1.1146589E-1,-5.7199813E-2,-1.3806206E-1,8.584454E-2,-4.7040973E-2,-1.3385434E-1,6.3542284E-2,2.09829E-2,1.4538324E-1,3.04659E-2,-7.0619605E-2],"categories":[],"categories_nodes":[],"categories_segments":[],"categories_sizes":[],"default_left":[0,0,0,0,0,0,0,0,0,0,0,0,0,0,0,0,0,0,0,0,0,0,0,0,0,0,0,0,0,0,0,0,0,0,0,0,0,0,0,0,0,0,0,0,0,0,0,0,0,0,0,0,0,0,0,0,0],"id":6,"left_children":[1,3,5,7,9,11,13,15,17,19,21,23,25,27,29,31,33,35,-1,37,39,41,43,-1,-1,45,47,49,51,53,55,-1,-1,-1,-1,-1,-1,-1,-1,-1,-1,-1,-1,-1,-1,-1,-1,-1,-1,-1,-1,-1,-1,-1,-1,-1,-1],"loss_changes":[3.8111273E2,8.203717E1,1.3129929E2,2.293554E1,1.9161926E1,2.8788956E1,1.1840066E2,1.9176924E1,1.1960854E1,1.1882416E1,1.889616E1,9.138991E0,1.1799423E1,1.5156726E2,1.4744638E2,1.1550098E1,6.3772106E0,4.728415E0,0E0,2.3661255E1,4.764496E0,7.5723295E0,8.135846E0,0E0,0E0,6.4178267E0,5.0850525E0,1.2803693E2,3.247229E1,6.3866806E1,6.2918064E1,0E0,0E0,0E0,0E0,0E0,0E0,0E0,0E0,0E0,0E0,0E0,0E0,0E0,0E0,0E0,0E0,0E0,0E0,0E0,0E0,0E0,0E0,0E0,0E0,0E0,0E0],"parents":[2147483647,0,0,1,1,2,2,3,3,4,4,5,5,6,6,7,7,8,8,9,9,10,10,11,11,12,12,13,13,14,14,15,15,16,16,17,17,19,19,20,20,21,21,22,22,25,25,26,26,27,27,28,28,29,29,30,30],"right_children":[2,4,6,8,10,12,14,16,18,20,22,24,26,28,30,32,34,36,-1,38,40,42,44,-1,-1,46,48,50,52,54,56,-1,-1,-1,-1,-1,-1,-1,-1,-1,-1,-1,-1,-1,-1,-1,-1,-1,-1,-1,-1,-1,-1,-1,-1,-1,-1],"split_conditions":[-1.6982656E0,-1.859624E0,-2.1379943E0,4.6662145E0,1.9918611E0,-9.240413E-1,-1.0858263E-1,7.7952175E0,1.3773911E0,8.558878E-1,2.7613142E0,-3.079956E0,-1.9550612E0,4.04022E-1,-7.575023E-1,2.105657E0,-3.740818E-1,-6.800382E-1,1.4100973E-1,3.0532384E0,5.276949E0,-1.0699294E0,-7.845417E-1,-9.79374E-2,1.2129126E-1,7.117649E-1,2.014206E-2,-5.707359E0,6.744253E0,-7.6904964E-1,6.506831E-1,-1.2659368E-1,1.2155992E-1,-7.971752E-2,1.2780502E-1,7.7838704E-2,-1.13402866E-1,1.0497743E-1,-3.4817707E-2,1.3286974E-1,5.4316014E-2,4.5009665E-2,-1.3087425E-1,1.1826416E-1,-4.1706946E-2,-9.2677586E-2,1.1146589E-1,-5.7199813E-2,-1.3806206E-1,8.584454E-2,-4.7040973E-2,-1.3385434E-1,6.3542284E-2,2.09829E-2,1.4538324E-1,3.04659E-2,-7.0619605E-2],"split_indices":[17,15,22,4,26,5,3,18,5,15,18,0,23,12,5,13,10,2,0,28,12,27,2,0,0,19,5,25,4,0,17,0,0,0,0,0,0,0,0,0,0,0,0,0,0,0,0,0,0,0,0,0,0,0,0,0,0],"split_type":[0,0,0,0,0,0,0,0,0,0,0,0,0,0,0,0,0,0,0,0,0,0,0,0,0,0,0,0,0,0,0,0,0,0,0,0,0,0,0,0,0,0,0,0,0,0,0,0,0,0,0,0,0,0,0,0,0],"sum_hessian":[1.4549098E3,3.5851404E2,1.0963958E3,4.5774403E1,3.1273965E2,1.4780086E2,9.485949E2,3.35299E1,1.2244504E1,2.8501715E2,2.7722483E1,7.666845E0,1.4013402E2,5.302404E2,4.183545E2,2.772254E1,5.8073587E0,3.9844975E0,8.260007E0,8.8501884E1,1.9651527E2,9.875111E0,1.784737E1,1.7794623E0,5.887382E0,4.3627796E0,1.3577124E2,3.5860562E2,1.7163481E2,1.7113953E2,2.4721495E2,2.6482487E1,1.2400535E0,1.2545851E0,4.5527735E0,1.1003025E0,2.884195E0,7.458994E1,1.391194E1,1.8649216E2,1.002313E1,2.94164E0,6.933471E0,1.4386921E1,3.46045E0,1.7169367E0,2.6458428E0,1.0375361E1,1.25395874E2,9.954929E1,2.5905634E2,1.6341916E2,8.215649E0,6.98094E1,1.0133013E2,1.1071665E2,1.364983E2],"tree_param":{"num_deleted":"0","num_feature":"30","num_nodes":"57","size_leaf_vector":"1"}},{"base_weights":[-1.7298864E-3,5.462226E-1,-4.2002797E-1,-4.754044E-2,9.406688E-1,-7.2840494E-1,-5.7127293E-2,5.482344E-1,-4.991721E-1,1.0302398E0,-3.0282903E-1,-1.1880221E0,-2.130376E-1,6.535486E-1,-3.9027342E-1,8.493987E-1,-8.1488764E-1,-1.0353502E0,2.0105211E-1,1.1241356E0,3.5558847E-1,7.511154E-1,-1.1037551E0,-1.2382101E0,-1.0983843E-2,1.718725E-1,-1.2086366E0,1.1369121E0,-1.2841168E-1,-8.6692697E-1,4.228699E-1,-7.308866E-2,9.656947E-2,-1.3290839E-1,1.0133123E-1,-1.2119488E-1,3.3607315E-2,9.800438E-2,-2.9521594E-2,-1.3231337E-1,1.1382639E-1,9.990874E-2,-6.287132E-2,-9.269316E-2,1.19226746E-1,9.435166E-2,-1.3539858E-1,-8.091171E-2,-1.3503753E-1,-1.1678924E-1,1.0203352E-1,-1.2612455E-1,4.4885647E-2,1.0825948E-1,-1.3203627E-1,-1.3014278E-1,1.3343704E-1,-9.7209975E-2,9.886858E-2,1.0740656E-1,-9.6948065E-2,-7.522269E-2,9.5369436E-2],"categories":[],"categories_nodes":[],"categories_segments":[],"categories_sizes":[],"default_left":[0,0,0,0,0,0,0,0,0,0,0,0,0,0,0,0,0,0,0,0,0,0,0,0,0,0,0,0,0,0,0,0,0,0,0,0,0,0,0,0,0,0,0,0,0,0,0,0,0,0,0,0,0,0,0,0,0,0,0,0,0,0,0],"id":7,"left_children":[1,3,5,7,9,11,13,15,17,19,21,23,25,27,29,31,33,35,37,39,41,43,45,47,49,51,53,55,57,59,61,-1,-1,-1,-1,-1,-1,-1,-1,-1,-1,-1,-1,-1,-1,-1,-1,-1,-1,-1,-1,-1,-1,-1,-1,-1,-1,-1,-1,-1,-1,-1,-1],"loss_changes":[3.2532288E2,1.439524E2,9.003403E1,6.652134E1,4.1437958E1,1.02797745E2,8.805544E1,4.4470245E1,5.298426E1,2.1432983E1,2.242393E1,1.35581665E1,7.9267105E1,4.5023296E1,9.846925E1,1.6847652E1,1.996694E1,1.9727577E1,2.417925E1,1.1950806E1,2.822527E1,9.722994E0,8.931604E0,9.512146E0,1.3605627E1,5.9973366E1,1.6186218E1,3.7113586E1,4.4555695E1,3.2870293E1,5.9483444E1,0E0,0E0,0E0,0E0,0E0,0E0,0E0,0E0,0E0,0E0,0E0,0E0,0E0,0E0,0E0,0E0,0E0,0E0,0E0,0E0,0E0,0E0,0E0,0E0,0E0,0E0,0E0,0E0,0E0,0E0,0E0,0E0],"parents":[2147483647,0,0,1,1,2,2,3,3,4,4,5,5,6,6,7,7,8,8,9,9,10,10,11,11,12,12,13,13,14,14,15,15,16,16,17,17,18,18,19,19,20,20,21,21,22,22,23,23,24,24,25,25,26,26,27,27,28,28,29,29,30,30],"right_children":[2,4,6,8,10,12,14,16,18,20,22,24,26,28,30,32,34,36,38,40,42,44,46,48,50,52,54,56,58,60,62,-1,-1,-1,-1,-1,-1,-1,-1,-1,-1,-1,-1,-1,-1,-1,-1,-1,-1,-1,-1,-1,-1,-1,-1,-1,-1,-1,-1,-1,-1,-1,-1],"split_conditions":[-4.0053204E-1,2.1266676E-1,1.1950241E0,2.6235098E-1,2.1909463E0,-3.0455783E-1,-3.4057873E-1,2.314285E0,-1.0744393E0,3.369328E0,-1.8663378E0,1.856546E0,4.9526467E0,-3.9552978E-1,-2.4796672E-1,-4.7100596E0,2.142098E0,4.6662145E0,-1.4954584E0,-5.3800983E0,9.669734E-1,1.1367416E0,-4.026106E0,-1.0399455E0,3.0356836E-1,-1.6047099E0,-3.2052805E0,-1.4395975E0,-7.7482116E-1,-1.0600558E1,-2.9512662E-1,-7.308866E-2,9.656947E-2,-1.3290839E-1,1.0133123E-1,-1.2119488E-1,3.3607315E-2,9.800438E-2,-2.9521594E-2,-1.3231337E-1,1.1382639E-1,9.990874E-2,-6.287132E-2,-9.269316E-2,1.19226746E-1,9.435166E-2,-1.3539858E-1,-8.091171E-2,-1.3503753E-1,-1.1678924E-1,1.0203352E-1,-1.2612455E-1,4.4885647E-2,1.0825948E-1,-1.3203627E-1,-1.3014278E-1,1.3343704E-1,-9.7209975E-2,9.886858E-2,1.0740656E-1,-9.6948065E-2,-7.522269E-2,9.5369436E-2],"split_indices":[17,15,18,12,26,3,1,2,3,22,5,11,25,21,21,4,6,4,5,1,10,18,1,5,22,28,5,7,10,25,4,0,0,0,0,0,0,0,0,0,0,0,0,0,0,0,0,0,0,0,0,0,0,0,0,0,0,0,0,0,0,0,0],"split_type":[0,0,0,0,0,0,0,0,0,0,0,0,0,0,0,0,0,0,0,0,0,0,0,0,0,0,0,0,0,0,0,0,0,0,0,0,0,0,0,0,0,0,0,0,0,0,0,0,0,0,0,0,0,0,0,0,0,0,0,0,0,0,0],"sum_hessian":[1.417337E3,6.134449E2,8.038922E2,2.4520912E2,3.6823575E2,4.340492E2,3.6984302E2,1.05639595E2,1.3956952E2,3.4365338E2,2.4582365E1,2.2874428E2,2.0530493E2,1.1773211E2,2.5211092E2,8.683204E1,1.8807552E1,7.877277E1,6.0796753E1,3.0108334E2,4.257003E1,1.0641427E1,1.3940939E1,2.1933981E2,9.40445E0,1.4865901E2,5.6645924E1,7.2477005E1,4.5255104E1,1.5889984E2,9.3211075E1,5.5898447E0,8.1242195E1,1.4892049E1,3.9155025E0,6.988938E1,8.883389E0,2.3279737E1,3.7517017E1,1.196383E0,2.9988696E2,2.5732246E1,1.6837784E1,1.9859899E0,8.6554365E0,1.2166106E0,1.2724328E1,4.715599E1,1.7218384E2,4.3699365E0,5.0345135E0,2.3502636E1,1.2515638E2,2.2297337E0,5.4416187E1,5.0107074E0,6.746629E1,2.5856657E1,1.9398445E1,7.498851E0,1.5140099E2,2.8874317E1,6.4336754E1],"tree_param":{"num_deleted":"0","num_feature":"30","num_nodes":"63","size_leaf_vector":"1"}},{"base_weights":[-2.2235867E-3,8.1834346E-1,-2.5533837E-1,6.568444E-2,1.0596733E0,-8.2336915E-1,-7.912653E-2,4.0998968E-1,-8.82447E-1,1.1774881E0,6.401192E-1,1.2127724E0,-9.607233E-1,-6.637754E-1,1.1938403E-1,-1.248578E-1,6.441695E-1,-1.3967033E-1,3.0687633E-1,3.1376165E-1,1.2169722E0,-1.6064376E-1,8.7868595E-1,-7.692916E-2,1.4030017E-1,-1.0612167E0,1.4197682E-1,-1.0317792E0,1.45540675E-2,3.01139E-1,-8.49E-1,7.9883456E-2,-1.2036397E-1,1.4816862E-1,-6.0098995E-2,9.451438E-2,-1.8580006E-1,1.2431934E-1,4.3079916E-2,-3.3241067E-2,9.735575E-2,-1.2748317E-1,-5.593088E-2,-1.2607203E-1,6.901673E-2,-1.1894325E-1,2.2126108E-2,-4.5637053E-2,1.019442E-1,4.287858E-2,-9.234332E-2,-1.2195297E-1,2.3796234E-2],"categories":[],"categories_nodes":[],"categories_segments":[],"categories_sizes":[],"default_left":[0,0,0,0,0,0,0,0,0,0,0,0,0,0,0,0,0,0,0,0,0,0,0,0,0,0,0,0,0,0,0,0,0,0,0,0,0,0,0,0,0,0,0,0,0,0,0,0,0,0,0,0,0],"id":8,"left_children":[1,3,5,7,9,11,13,15,17,19,21,23,25,27,29,-1,31,-1,33,35,37,-1,39,-1,-1,41,43,45,47,49,51,-1,-1,-1,-1,-1,-1,-1,-1,-1,-1,-1,-1,-1,-1,-1,-1,-1,-1,-1,-1,-1,-1],"loss_changes":[2.857693E2,5.884677E1,1.0518595E2,2.6417822E1,1.1383362E1,7.076434E1,9.335184E1,2.3811974E1,1.3627623E1,6.115509E0,3.1438297E1,7.1756783E0,2.6046936E1,5.0904335E1,1.0600246E2,0E0,1.5984783E1,0E0,8.713057E0,1.5023832E1,3.2129822E0,0E0,6.217121E0,0E0,0E0,2.2262146E1,1.65569E1,2.637384E1,3.486196E1,7.958373E1,3.863469E1,0E0,0E0,0E0,0E0,0E0,0E0,0E0,0E0,0E0,0E0,0E0,0E0,0E0,0E0,0E0,0E0,0E0,0E0,0E0,0E0,0E0,0E0],"parents":[2147483647,0,0,1,1,2,2,3,3,4,4,5,5,6,6,7,7,8,8,9,9,10,10,11,11,12,12,13,13,14,14,16,16,18,18,19,19,20,20,22,22,25,25,26,26,27,27,28,28,29,29,30,30],"right_children":[2,4,6,8,10,12,14,16,18,20,22,24,26,28,30,-1,32,-1,34,36,38,-1,40,-1,-1,42,44,46,48,50,52,-1,-1,-1,-1,-1,-1,-1,-1,-1,-1,-1,-1,-1,-1,-1,-1,-1,-1,-1,-1,-1,-1],"split_conditions":[-1.7363939E0,-4.2523646E-1,-1.222126E0,3.18919E0,5.0377125E-1,-1.7353396E0,-1.03507E0,-5.6669507E0,7.1343476E-1,-3.9486551E0,-2.0522854E0,-2.6234186E0,6.930185E0,5.774076E-1,2.2160738E0,-1.248578E-1,6.983069E0,-1.3967033E-1,-6.145032E-1,2.5803592E0,4.6768184E0,-1.6064376E-1,-1.2333223E0,-7.692916E-2,1.4030017E-1,9.5334756E-1,-2.7463393E0,1.7267095E0,-1.8720475E-1,3.9142103E0,9.357649E-1,7.9883456E-2,-1.2036397E-1,1.4816862E-1,-6.0098995E-2,9.451438E-2,-1.8580006E-1,1.2431934E-1,4.3079916E-2,-3.3241067E-2,9.735575E-2,-1.2748317E-1,-5.593088E-2,-1.2607203E-1,6.901673E-2,-1.1894325E-1,2.2126108E-2,-4.5637053E-2,1.019442E-1,4.287858E-2,-9.234332E-2,-1.2195297E-1,2.3796234E-2],"split_indices":[17,15,22,28,26,5,28,4,9,1,0,0,4,3,8,0,12,0,13,4,22,0,9,0,0,15,22,0,21,12,7,0,0,0,0,0,0,0,0,0,0,0,0,0,0,0,0,0,0,0,0,0,0],"split_type":[0,0,0,0,0,0,0,0,0,0,0,0,0,0,0,0,0,0,0,0,0,0,0,0,0,0,0,0,0,0,0,0,0,0,0,0,0,0,0,0,0,0,0,0,0,0,0,0,0,0,0,0,0],"sum_hessian":[1.3738849E3,3.2335962E2,1.0505253E3,7.8817116E1,2.4454251E2,2.478598E2,8.0266547E2,5.8236607E1,2.058051E1,1.8951762E2,5.5024887E1,1.5168718E1,2.3269109E2,2.0286073E2,5.998047E2,6.669373E0,5.1567234E1,1.4246178E1,6.3343306E0,8.675933E0,1.8084169E2,4.7318516E0,5.0293034E1,1.0617685E0,1.4106951E1,2.1329068E2,1.94004E1,1.3117519E2,7.168555E1,5.0559848E2,9.420621E1,4.8108173E1,3.4590588E0,2.4856985E0,3.8486323E0,7.159347E0,1.5165863E0,1.744422E2,6.399489E0,3.4716315E0,4.6821404E1,1.4853383E2,6.475687E1,5.0861897E0,1.4314211E1,1.16560684E2,1.4614512E1,4.918271E1,2.2502836E1,4.584595E2,4.713899E1,7.016575E1,2.4040455E1],"tree_param":{"num_deleted":"0","num_feature":"30","num_nodes":"53","size_leaf_vector":"1"}},{"base_weights":[-2.7290606E-3,6.7365974E-1,-2.7082473E-1,4.956992E-2,9.5651174E-1,-8.222281E-1,-9.955943E-2,3.2953897E-1,-8.7688637E-1,1.1376483E0,6.406061E-1,1.1381791E0,-9.5089483E-1,-1.2380359E0,6.876019E-3,-1.3197687E-1,5.3179634E-1,-1.373676E-1,1.7945129E-1,2.3004173E-1,1.1864842E0,-1.6839997E-1,8.307401E-1,-7.408801E-2,1.3376307E-1,-1.042638E0,7.9841316E-2,-1.3533435E0,2.7607897E-1,1.2742159E-1,-1.1039914E0,6.744926E-2,-1.2272226E-1,9.9276185E-2,-1.1137414E-1,9.017177E-2,-1.709072E-1,3.0873774E-2,1.2310344E-1,1.08095005E-1,4.0814318E-2,1.37337E-1,-1.08275495E-1,-1.1905187E-1,5.9235282E-2,5.568598E-2,-1.4069127E-1,1.12284936E-1,-9.802748E-2,2.4764052E-2,-8.653813E-2,1.4172971E-2,-1.35253E-1],"categories":[],"categories_nodes":[],"categories_segments":[],"categories_sizes":[],"default_left":[0,0,0,0,0,0,0,0,0,0,0,0,0,0,0,0,0,0,0,0,0,0,0,0,0,0,0,0,0,0,0,0,0,0,0,0,0,0,0,0,0,0,0,0,0,0,0,0,0,0,0,0,0],"id":9,"left_children":[1,3,5,7,9,11,13,15,17,19,21,23,25,27,29,-1,31,-1,33,35,37,-1,39,-1,-1,41,43,45,47,49,51,-1,-1,-1,-1,-1,-1,-1,-1,-1,-1,-1,-1,-1,-1,-1,-1,-1,-1,-1,-1,-1,-1],"loss_changes":[2.4327977E2,6.717627E1,9.064938E1,3.1368208E1,1.4263123E1,5.848044E1,8.8976166E1,3.1639196E1,1.498204E1,7.050583E0,4.4610863E1,6.414238E0,2.0327667E1,1.1333992E1,9.0186485E1,0E0,2.1742546E1,0E0,1.1482527E1,1.4144997E1,5.741638E0,0E0,9.185741E0,0E0,0E0,2.0547684E1,1.2702233E1,6.770149E0,6.710465E0,7.2722275E1,2.0604088E1,0E0,0E0,0E0,0E0,0E0,0E0,0E0,0E0,0E0,0E0,0E0,0E0,0E0,0E0,0E0,0E0,0E0,0E0,0E0,0E0,0E0,0E0],"parents":[2147483647,0,0,1,1,2,2,3,3,4,4,5,5,6,6,7,7,8,8,9,9,10,10,11,11,12,12,13,13,14,14,16,16,18,18,19,19,20,20,22,22,25,25,26,26,27,27,28,28,29,29,30,30],"right_children":[2,4,6,8,10,12,14,16,18,20,22,24,26,28,30,-1,32,-1,34,36,38,-1,40,-1,-1,42,44,46,48,50,52,-1,-1,-1,-1,-1,-1,-1,-1,-1,-1,-1,-1,-1,-1,-1,-1,-1,-1,-1,-1,-1,-1],"split_conditions":[-1.3127073E0,-6.668237E-2,-1.222126E0,3.18919E0,-3.5627136E-1,-1.7353396E0,-2.738971E0,-5.5678287E0,7.1343476E-1,-3.9486551E0,-2.5368836E0,-2.6234186E0,6.930185E0,1.7862365E0,2.9018369E0,-1.3197687E-1,6.983069E0,-1.373676E-1,-2.6894903E-1,-2.3062868E0,-2.1708777E0,-1.6839997E-1,-2.251386E0,-7.408801E-2,1.3376307E-1,-2.3431602E0,-2.7463393E0,-4.1397924E0,-2.3612378E0,3.1025093E0,-1.7981291E0,6.744926E-2,-1.2272226E-1,9.9276185E-2,-1.1137414E-1,9.017177E-2,-1.709072E-1,3.0873774E-2,1.2310344E-1,1.08095005E-1,4.0814318E-2,1.37337E-1,-1.08275495E-1,-1.1905187E-1,5.9235282E-2,5.568598E-2,-1.4069127E-1,1.12284936E-1,-9.802748E-2,2.4764052E-2,-8.653813E-2,1.4172971E-2,-1.35253E-1],"split_indices":[17,15,22,28,26,5,7,4,9,1,0,0,4,13,26,0,12,0,29,17,28,0,17,0,0,11,22,8,4,12,15,0,0,0,0,0,0,0,0,0,0,0,0,0,0,0,0,0,0,0,0,0,0],"split_type":[0,0,0,0,0,0,0,0,0,0,0,0,0,0,0,0,0,0,0,0,0,0,0,0,0,0,0,0,0,0,0,0,0,0,0,0,0,0,0,0,0,0,0,0,0,0,0,0,0,0,0,0,0],"sum_hessian":[1.3395839E3,3.7981677E2,9.59767E2,1.18821686E2,2.609951E2,2.2655447E2,7.332126E2,9.174212E1,2.7079569E1,1.6422765E2,9.676743E1,1.347033E1,2.1308415E2,6.177803E1,6.714346E2,9.417983E0,8.2324135E1,1.8213465E1,8.866104E0,8.677022E0,1.5555063E2,6.72233E0,9.0045105E1,1.0321105E0,1.243822E1,1.9565764E2,1.7426514E1,5.7504917E1,4.2731123E0,6.0650507E2,6.492948E1,7.6717186E1,5.606944E0,5.5855656E0,3.2805388E0,6.8420405E0,1.8349817E0,7.8966913E0,1.4765393E2,5.557974E1,3.4465366E1,2.652938E0,1.930047E2,4.629207E0,1.2797306E1,1.3123736E0,5.6192543E1,2.6161294E0,1.6569829E0,5.4166516E2,6.4839905E1,1.0871123E1,5.405836E1],"tree_param":{"num_deleted":"0","num_feature":"30","num_nodes":"53","size_leaf_vector":"1"}},{"base_weights":[-3.1714789E-3,3.2348403E-1,-5.004937E-1,-1.1783163E-1,6.7908686E-1,-8.4860784E-1,-1.9308163E-1,-3.635137E-1,6.7451787E-1,8.4235257E-1,-2.0697156E-1,-1.0998993E0,-3.8456047E-1,3.6738956E-1,-6.454578E-1,2.4375238E-3,-8.7315285E-1,-6.324711E-1,1.2281408E0,4.873169E-1,1.0169785E0,8.964235E-1,-7.859918E-1,-1.1964167E0,-8.5804604E-2,1.3688337E0,-6.308728E-1,-4.0563497E-1,7.0375377E-1,-8.439995E-1,6.0163254E-1,-5.0475497E-2,6.687974E-2,-2.3288585E-2,-1.1845698E-1,7.375288E-2,-1.00697234E-1,-9.7995736E-2,1.3234273E-1,-1.1792209E-1,6.7457676E-2,1.1127672E-1,6.0914326E-2,-1.042511E-1,1.07628964E-1,3.5604734E-2,-1.1655634E-1,1.3785748E-1,-1.2292367E-1,-8.210077E-2,1.2683837E-1,-8.090835E-2,1.7323217E-1,8.8846736E-2,-8.856364E-2,-1.2883241E-1,2.5833195E-2,-1.1566669E-1,8.5544765E-2,6.327763E-2,-9.460505E-2,-1.2051659E-1,1.2480656E-1],"categories":[],"categories_nodes":[],"categories_segments":[],"categories_sizes":[],"default_left":[0,0,0,0,0,0,0,0,0,0,0,0,0,0,0,0,0,0,0,0,0,0,0,0,0,0,0,0,0,0,0,0,0,0,0,0,0,0,0,0,0,0,0,0,0,0,0,0,0,0,0,0,0,0,0,0,0,0,0,0,0,0,0],"id":10,"left_children":[1,3,5,7,9,11,13,15,17,19,21,23,25,27,29,31,33,35,37,39,41,43,45,47,49,51,53,55,57,59,61,-1,-1,-1,-1,-1,-1,-1,-1,-1,-1,-1,-1,-1,-1,-1,-1,-1,-1,-1,-1,-1,-1,-1,-1,-1,-1,-1,-1,-1,-1,-1,-1],"loss_changes":[2.125043E2,1.23982506E2,5.5331253E1,6.899259E1,6.344539E1,2.7901169E1,7.0388084E1,5.0399025E1,6.1510597E1,2.2413757E1,4.4694283E1,1.5267105E1,3.837854E1,3.258329E1,3.8506355E1,5.3831707E1,2.2243393E1,1.3895097E1,1.3773804E1,3.9413837E1,8.962448E0,9.549141E0,2.022082E1,1.3805588E1,1.57005415E1,1.0121485E1,3.0532991E1,2.2777044E1,2.551902E1,2.061348E1,2.6803574E1,0E0,0E0,0E0,0E0,0E0,0E0,0E0,0E0,0E0,0E0,0E0,0E0,0E0,0E0,0E0,0E0,0E0,0E0,0E0,0E0,0E0,0E0,0E0,0E0,0E0,0E0,0E0,0E0,0E0,0E0,0E0,0E0],"parents":[2147483647,0,0,1,1,2,2,3,3,4,4,5,5,6,6,7,7,8,8,9,9,10,10,11,11,12,12,13,13,14,14,15,15,16,16,17,17,18,18,19,19,20,20,21,21,22,22,23,23,24,24,25,25,26,26,27,27,28,28,29,29,30,30],"right_children":[2,4,6,8,10,12,14,16,18,20,22,24,26,28,30,32,34,36,38,40,42,44,46,48,50,52,54,56,58,60,62,-1,-1,-1,-1,-1,-1,-1,-1,-1,-1,-1,-1,-1,-1,-1,-1,-1,-1,-1,-1,-1,-1,-1,-1,-1,-1,-1,-1,-1,-1,-1,-1],"split_conditions":[6.506831E-1,2.1266676E-1,-2.0575504E-1,1.7757624E0,1.1432257E0,3.0632126E0,-2.6345997E0,1.7957467E0,-7.300401E-1,-1.0318046E0,-2.2169702E0,4.7345996E0,-9.240413E-1,8.101861E-1,2.9267173E0,2.404831E-1,-1.1371223E0,-2.7610056E0,-2.9463034E0,-1.8489361E0,1.960908E0,-2.4558835E0,-1.8663378E0,-2.6835454E0,-9.960701E-1,-3.376212E0,-1.110643E0,-5.3050095E-1,-1.88594E0,-8.109848E0,5.720719E-2,-5.0475497E-2,6.687974E-2,-2.3288585E-2,-1.1845698E-1,7.375288E-2,-1.00697234E-1,-9.7995736E-2,1.3234273E-1,-1.1792209E-1,6.7457676E-2,1.1127672E-1,6.0914326E-2,-1.042511E-1,1.07628964E-1,3.5604734E-2,-1.1655634E-1,1.3785748E-1,-1.2292367E-1,-8.210077E-2,1.2683837E-1,-8.090835E-2,1.7323217E-1,8.8846736E-2,-8.856364E-2,-1.2883241E-1,2.5833195E-2,-1.1566669E-1,8.5544765E-2,6.327763E-2,-9.460505E-2,-1.2051659E-1,1.2480656E-1],"split_indices":[17,15,28,21,26,18,25,12,1,0,17,15,5,28,3,6,26,26,6,28,4,0,5,11,28,0,1,0,7,24,24,0,0,0,0,0,0,0,0,0,0,0,0,0,0,0,0,0,0,0,0,0,0,0,0,0,0,0,0,0,0,0,0],"split_type":[0,0,0,0,0,0,0,0,0,0,0,0,0,0,0,0,0,0,0,0,0,0,0,0,0,0,0,0,0,0,0,0,0,0,0,0,0,0,0,0,0,0,0,0,0,0,0,0,0,0,0,0,0,0,0,0,0,0,0,0,0,0,0],"sum_hessian":[1.3061001E3,7.8852423E2,5.175758E2,3.521555E2,4.3636877E2,2.4189401E2,2.756818E2,2.6922018E2,8.29353E1,3.6851523E2,6.785353E1,1.5603015E2,8.586386E1,1.2321388E2,1.524679E2,1.5727942E2,1.1194077E2,2.4634928E1,5.8300373E1,1.22746796E2,2.4576845E2,2.3163818E1,4.468971E1,1.4230623E2,1.3723924E1,1.0014872E1,7.584898E1,3.729574E1,8.5918144E1,1.3180693E2,2.0660963E1,8.9443214E1,6.7836205E1,3.7202015E1,7.4738754E1,5.080411E0,1.9554518E1,2.0276947E0,5.627268E1,1.1864071E1,1.1088272E2,1.9762384E2,4.8144604E1,1.5592502E0,2.1604567E1,1.1163478E1,3.3526234E1,1.274915E0,1.4103131E2,9.150013E0,4.5739107E0,1.2570567E0,8.757814E0,1.0534818E1,6.531417E1,1.5607077E1,2.1688662E1,5.977932E0,7.9940216E1,8.183481E0,1.2362346E2,5.2164655E0,1.5444498E1],"tree_param":{"num_deleted":"0","num_feature":"30","num_nodes":"63","size_leaf_vector":"1"}},{"base_weights":[-3.3276405E-3,7.077634E-1,-2.0852455E-1,-3.088466E-1,8.483057E-1,-7.3641844E-2,-8.1801724E-1,-7.113879E-1,6.8371165E-1,1.0112605E0,4.9113414E-1,7.691496E-2,-8.4836733E-1,-9.67194E-1,3.1379405E-1,-1.081882E0,6.973584E-1,1.1333282E0,-9.123874E-2,1.0438102E0,-2.935983E-1,-1.476122E-1,6.9243485E-1,7.170324E-1,-8.1234075E-2,-1.126549E0,2.0738582E-1,5.652319E-1,-1.0252131E0,9.6301645E-1,-7.361783E-1,6.64634E-2,-1.2588239E-1,-6.418809E-2,1.1009115E-1,2.0497572E-2,1.2929927E-1,1.07345544E-1,4.1207103E-3,-1.69587E-1,8.7217204E-2,7.892832E-2,-1.461372E-1,-6.9312215E-2,1.0572106E-1,9.7010136E-2,-2.1711802E-2,2.7348667E-2,-1.2050475E-1,7.217302E-2,-1.3154958E-1,-9.3596965E-2,1.3528089E-1,-1.5502894E-2,-1.13020234E-1,2.9055381E-2,1.3484702E-1,-1.2377342E-1,7.994304E-2],"categories":[],"categories_nodes":[],"categories_segments":[],"categories_sizes":[],"default_left":[0,0,0,0,0,0,0,0,0,0,0,0,0,0,0,0,0,0,0,0,0,0,0,0,0,0,0,0,0,0,0,0,0,0,0,0,0,0,0,0,0,0,0,0,0,0,0,0,0,0,0,0,0,0,0,0,0,0,0],"id":11,"left_children":[1,3,5,7,9,11,13,15,17,19,21,23,25,27,29,31,33,35,-1,37,39,-1,41,43,45,47,49,51,53,55,57,-1,-1,-1,-1,-1,-1,-1,-1,-1,-1,-1,-1,-1,-1,-1,-1,-1,-1,-1,-1,-1,-1,-1,-1,-1,-1,-1,-1],"loss_changes":[1.8516866E2,4.0866425E1,8.090227E1,1.4570269E1,1.405069E1,9.424886E1,3.0416763E1,1.4099684E1,8.698971E0,7.556198E0,3.2802246E1,6.859373E1,3.8845345E1,1.461203E1,1.53819E1,7.21402E0,3.9127955E0,1.0362902E0,0E0,4.9121704E0,9.546061E0,0E0,1.648125E1,6.512161E1,7.789407E1,1.1782166E1,2.3086382E1,8.835545E0,1.3750458E1,3.1681309E0,7.760254E0,0E0,0E0,0E0,0E0,0E0,0E0,0E0,0E0,0E0,0E0,0E0,0E0,0E0,0E0,0E0,0E0,0E0,0E0,0E0,0E0,0E0,0E0,0E0,0E0,0E0,0E0,0E0,0E0],"parents":[2147483647,0,0,1,1,2,2,3,3,4,4,5,5,6,6,7,7,8,8,9,9,10,10,11,11,12,12,13,13,14,14,15,15,16,16,17,17,19,19,20,20,22,22,23,23,24,24,25,25,26,26,27,27,28,28,29,29,30,30],"right_children":[2,4,6,8,10,12,14,16,18,20,22,24,26,28,30,32,34,36,-1,38,40,-1,42,44,46,48,50,52,54,56,58,-1,-1,-1,-1,-1,-1,-1,-1,-1,-1,-1,-1,-1,-1,-1,-1,-1,-1,-1,-1,-1,-1,-1,-1,-1,-1,-1,-1],"split_conditions":[-1.7363939E0,-1.9506217E0,2.3732278E0,4.6662145E0,3.7051372E-2,2.8787718E0,1.5677722E0,7.7952175E0,-3.1964345E0,7.8057504E0,-2.3364284E0,-1.2784047E0,1.1500916E0,-2.9596913E0,-2.115281E0,-2.5819058E0,-3.740818E-1,1.2760627E0,-9.123874E-2,4.6768184E0,2.1328701E-1,-1.476122E-1,1.1507157E0,-5.646364E-1,-7.4493084E0,-1.8719318E0,-2.904538E-1,1.9298302E0,-6.8972707E0,2.4857423E0,1.057116E0,6.64634E-2,-1.2588239E-1,-6.418809E-2,1.1009115E-1,2.0497572E-2,1.2929927E-1,1.07345544E-1,4.1207103E-3,-1.69587E-1,8.7217204E-2,7.892832E-2,-1.461372E-1,-6.9312215E-2,1.0572106E-1,9.7010136E-2,-2.1711802E-2,2.7348667E-2,-1.2050475E-1,7.217302E-2,-1.3154958E-1,-9.3596965E-2,1.3528089E-1,-1.5502894E-2,-1.13020234E-1,2.9055381E-2,1.3484702E-1,-1.2377342E-1,7.994304E-2],"split_indices":[17,15,17,4,26,12,28,18,25,25,0,5,3,5,25,9,10,5,0,22,0,0,4,3,25,29,5,3,25,28,29,0,0,0,0,0,0,0,0,0,0,0,0,0,0,0,0,0,0,0,0,0,0,0,0,0,0,0,0],"split_type":[0,0,0,0,0,0,0,0,0,0,0,0,0,0,0,0,0,0,0,0,0,0,0,0,0,0,0,0,0,0,0,0,0,0,0,0,0,0,0,0,0,0,0,0,0,0,0,0,0,0,0,0,0,0,0,0,0,0,0],"sum_hessian":[1.2670173E3,2.8319208E2,9.8382526E2,3.4249752E1,2.4894232E2,8.064714E2,1.773539E2,2.4568888E1,9.680863E0,1.6969153E2,7.92508E1,6.76001E2,1.304704E2,1.5682875E2,2.0525143E1,1.963658E1,4.932309E0,7.779374E0,1.901489E0,1.6575677E2,3.934751E0,6.7687516E0,7.248205E1,1.3322623E2,5.427748E2,1.0320873E2,2.7261658E1,5.402167E0,1.5142659E2,1.2734141E1,7.7910004E0,1.5528508E0,1.8083729E1,1.0053525E0,3.9269567E0,1.4767505E0,6.3026237E0,1.6092776E2,4.829008E0,1.57977E0,2.354981E0,6.996934E1,2.5127091E0,2.5690952E1,1.0753527E2,6.1420967E1,4.813538E2,5.347687E0,9.7861046E1,2.0772083E1,6.4895735E0,1.7940701E0,3.6080966E0,1.656953E1,1.3485706E2,5.2787056E0,7.455436E0,6.019053E0,1.7719471E0],"tree_param":{"num_deleted":"0","num_feature":"30","num_nodes":"59","size_leaf_vector":"1"}},{"base_weights":[-3.2170506E-3,4.3380046E-1,-3.0531648E-1,-5.5277365E-1,5.877302E-1,-7.93559E-1,-1.3315055E-1,4.5878947E-1,-8.6512977E-1,1.6265719E-1,7.7656317E-1,-1.7176701E-1,-1.1226671E0,1.4192608E-1,-6.577969E-1,-1.0040619E-1,8.603603E-1,-1.6120432E-1,-1.27257E-1,8.4656805E-1,-2.6123264E-1,8.655898E-1,-1.1818145E-1,-8.873074E-1,5.9108835E-1,-1.3014835E0,-6.853198E-1,-1.7212054E-1,5.2851975E-1,-7.8324294E-1,3.9034978E-1,-8.156599E-2,1.1458194E-1,4.56889E-2,-9.708131E-2,9.447779E-2,-1.468224E-1,-1.0257562E-1,4.317057E-3,9.491445E-2,-5.0450205E-3,9.2891976E-2,-7.914601E-2,8.35313E-3,-1.2505062E-1,-3.890526E-2,1.1222996E-1,-1.3276143E-1,-8.584916E-3,-1.2478786E-1,-1.809573E-4,2.1232909E-2,-7.819525E-2,7.430116E-2,-4.6215583E-2,-2.9878063E-2,-9.7429074E-2,-1.21712945E-1,9.562316E-2],"categories":[],"categories_nodes":[],"categories_segments":[],"categories_sizes":[],"default_left":[0,0,0,0,0,0,0,0,0,0,0,0,0,0,0,0,0,0,0,0,0,0,0,0,0,0,0,0,0,0,0,0,0,0,0,0,0,0,0,0,0,0,0,0,0,0,0,0,0,0,0,0,0,0,0,0,0,0,0],"id":12,"left_children":[1,3,5,7,9,11,13,15,17,19,21,23,25,27,29,-1,31,33,-1,35,37,39,41,43,45,47,49,51,53,55,57,-1,-1,-1,-1,-1,-1,-1,-1,-1,-1,-1,-1,-1,-1,-1,-1,-1,-1,-1,-1,-1,-1,-1,-1,-1,-1,-1,-1],"loss_changes":[1.6300941E2,7.696489E1,6.126046E1,2.2081219E1,3.4953705E1,3.871203E1,7.815813E1,1.0759321E1,1.4933441E1,3.9559322E1,2.418573E1,3.708595E1,8.816147E0,4.3274303E1,2.4793106E1,0E0,7.515685E0,1.0700023E1,0E0,1.3244495E1,1.9717863E1,2.1104034E1,2.0644464E1,1.2432251E1,1.7628115E1,2.649582E0,1.4662264E1,4.635546E1,3.427287E1,1.5134331E1,1.9879074E1,0E0,0E0,0E0,0E0,0E0,0E0,0E0,0E0,0E0,0E0,0E0,0E0,0E0,0E0,0E0,0E0,0E0,0E0,0E0,0E0,0E0,0E0,0E0,0E0,0E0,0E0,0E0,0E0],"parents":[2147483647,0,0,1,1,2,2,3,3,4,4,5,5,6,6,7,7,8,8,9,9,10,10,11,11,12,12,13,13,14,14,16,16,17,17,19,19,20,20,21,21,22,22,23,23,24,24,25,25,26,26,27,27,28,28,29,29,30,30],"right_children":[2,4,6,8,10,12,14,16,18,20,22,24,26,28,30,-1,32,34,-1,36,38,40,42,44,46,48,50,52,54,56,58,-1,-1,-1,-1,-1,-1,-1,-1,-1,-1,-1,-1,-1,-1,-1,-1,-1,-1,-1,-1,-1,-1,-1,-1,-1,-1,-1,-1],"split_conditions":[-4.6128383E-1,-2.277219E0,-7.7737904E-1,-3.3368984E-1,-1.1190689E0,-5.7200515E-1,7.516868E-1,2.4855149E0,-8.0198574E-1,-2.0753691E0,1.9918611E0,1.7287827E-1,6.208481E-1,5.8943E-1,5.2549005E0,-1.0040619E-1,-4.7100596E0,-1.7885778E0,-1.27257E-1,5.5039663E0,-9.1440946E-1,4.2199726E0,-1.6333859E0,-8.850841E-1,-5.100439E-1,5.543267E0,-1.0313667E-2,-1.1093383E0,1.8004601E0,-4.394226E0,2.1543537E-1,-8.156599E-2,1.1458194E-1,4.56889E-2,-9.708131E-2,9.447779E-2,-1.468224E-1,-1.0257562E-1,4.317057E-3,9.491445E-2,-5.0450205E-3,9.2891976E-2,-7.914601E-2,8.35313E-3,-1.2505062E-1,-3.890526E-2,1.1222996E-1,-1.3276143E-1,-8.584916E-3,-1.2478786E-1,-1.809573E-4,2.1232909E-2,-7.819525E-2,7.430116E-2,-4.6215583E-2,-2.9878063E-2,-9.7429074E-2,-1.21712945E-1,9.562316E-2],"split_indices":[17,15,7,2,0,8,26,18,26,26,26,28,20,28,24,0,4,0,0,25,28,2,5,20,3,6,0,12,8,25,6,0,0,0,0,0,0,0,0,0,0,0,0,0,0,0,0,0,0,0,0,0,0,0,0,0,0,0,0],"split_type":[0,0,0,0,0,0,0,0,0,0,0,0,0,0,0,0,0,0,0,0,0,0,0,0,0,0,0,0,0,0,0,0,0,0,0,0,0,0,0,0,0,0,0,0,0,0,0,0,0,0,0,0,0,0,0,0,0,0,0],"sum_hessian":[1.232704E3,5.0366516E2,7.2903876E2,6.762819E1,4.36037E2,1.8911667E2,5.399221E2,1.5845107E1,5.1783077E1,1.346943E2,3.0134265E2,6.598033E1,1.2313633E2,3.5468643E2,1.852357E2,3.0896664E0,1.2755441E1,1.9495974E1,3.2287106E1,5.1158E1,8.353631E1,2.741022E2,2.7240452E1,3.396181E1,3.201852E1,8.599858E1,3.713775E1,1.9601213E2,1.5867429E2,1.6566145E2,1.957424E1,1.586025E0,1.1169416E1,1.130266E1,8.193314E0,4.964362E1,1.51438E0,2.3114182E1,6.0422127E1,2.5115729E2,2.2944921E1,1.0512081E1,1.6728369E1,9.455924E0,2.4505888E1,1.1347954E1,2.0670567E1,8.409872E1,1.8998616E0,1.991837E1,1.721938E1,1.20621735E2,7.53904E1,1.3063945E2,2.8034843E1,4.7577503E1,1.18083954E2,4.796929E0,1.477731E1],"tree_param":{"num_deleted":"0","num_feature":"30","num_nodes":"59","size_leaf_vector":"1"}},{"base_weights":[-3.954981E-3,7.946833E-1,-1.5198103E-1,2.8645477E-1,1.0238426E0,-3.747761E-1,1.7221199E-1,-1.1678584E-1,4.3449378E-1,1.0744591E0,-5.1416446E-2,-2.9543288E-2,-8.789365E-1,6.2957126E-1,-5.571544E-1,7.3195404E-1,-4.7825062E-1,1.1278758E0,3.6651826E-1,-1.3030565E-1,9.8170295E-2,2.108985E-1,-9.192735E-1,-9.880287E-1,4.8240152E-1,3.66634E-2,1.1037189E0,1.9849525E-1,-7.8611773E-1,8.6572506E-2,-1.10534064E-1,-1.0468761E-1,5.549376E-2,1.14690915E-1,6.924352E-3,-1.9314979E-1,9.7797506E-2,4.8164416E-2,-5.7428986E-2,-5.1577803E-2,-1.3784733E-1,-1.03057496E-1,7.304116E-2,-1.1730625E-1,1.1113819E-1,-9.9901155E-2,2.7397862E-2,-1.2899522E-1,1.1423748E-1,5.720296E-2,-1.0192349E-1,-1.0009482E-1,-7.079714E-4],"categories":[],"categories_nodes":[],"categories_segments":[],"categories_sizes":[],"default_left":[0,0,0,0,0,0,0,0,0,0,0,0,0,0,0,0,0,0,0,0,0,0,0,0,0,0,0,0,0,0,0,0,0,0,0,0,0,0,0,0,0,0,0,0,0,0,0,0,0,0,0,0,0],"id":13,"left_children":[1,3,5,7,9,11,13,-1,15,17,19,21,23,25,27,29,31,33,35,-1,-1,37,39,41,43,45,47,49,51,-1,-1,-1,-1,-1,-1,-1,-1,-1,-1,-1,-1,-1,-1,-1,-1,-1,-1,-1,-1,-1,-1,-1,-1],"loss_changes":[1.4177617E2,2.154686E1,7.313952E1,1.3353209E1,7.0684967E0,1.0439653E2,1.380438E2,0E0,1.5250893E1,4.2421875E0,1.0004357E1,7.659534E1,3.668541E1,7.141045E1,2.7771236E1,1.1227383E1,8.861446E0,2.217453E0,1.6107384E1,0E0,0E0,6.0219406E1,1.3401527E1,1.7280045E1,2.0838146E1,2.8285585E1,1.4537781E1,1.7828966E1,2.0527466E1,0E0,0E0,0E0,0E0,0E0,0E0,0E0,0E0,0E0,0E0,0E0,0E0,0E0,0E0,0E0,0E0,0E0,0E0,0E0,0E0,0E0,0E0,0E0,0E0],"parents":[2147483647,0,0,1,1,2,2,3,3,4,4,5,5,6,6,8,8,9,9,10,10,11,11,12,12,13,13,14,14,15,15,16,16,17,17,18,18,21,21,22,22,23,23,24,24,25,25,26,26,27,27,28,28],"right_children":[2,4,6,8,10,12,14,-1,16,18,20,22,24,26,28,30,32,34,36,-1,-1,38,40,42,44,46,48,50,52,-1,-1,-1,-1,-1,-1,-1,-1,-1,-1,-1,-1,-1,-1,-1,-1,-1,-1,-1,-1,-1,-1,-1,-1],"split_conditions":[-2.251386E0,1.6730918E-1,9.474868E-2,-5.6669507E0,2.4396882E0,-6.623484E-1,5.2145493E-1,-1.1678584E-1,3.18919E0,3.141647E0,-8.032157E0,6.8327266E-1,6.4054694E0,-8.2889706E-1,-4.0053204E-1,6.983069E0,7.1343476E-1,3.2423248E0,-2.7603978E-1,-1.3030565E-1,9.8170295E-2,1.1130213E0,1.3005238E0,2.2509804E0,1.1589695E0,-1.1931887E0,-6.0597067E0,2.4780157E0,9.479355E-1,8.6572506E-2,-1.10534064E-1,-1.0468761E-1,5.549376E-2,1.14690915E-1,6.924352E-3,-1.9314979E-1,9.7797506E-2,4.8164416E-2,-5.7428986E-2,-5.1577803E-2,-1.3784733E-1,-1.03057496E-1,7.304116E-2,-1.1730625E-1,1.1113819E-1,-9.9901155E-2,2.7397862E-2,-1.2899522E-1,1.1423748E-1,5.720296E-2,-1.0192349E-1,-1.0009482E-1,-7.079714E-4],"split_indices":[17,15,3,4,1,12,5,0,28,21,4,25,4,0,17,12,9,26,3,0,0,26,4,29,7,7,8,2,20,0,0,0,0,0,0,0,0,0,0,0,0,0,0,0,0,0,0,0,0,0,0,0,0],"split_type":[0,0,0,0,0,0,0,0,0,0,0,0,0,0,0,0,0,0,0,0,0,0,0,0,0,0,0,0,0,0,0,0,0,0,0,0,0,0,0,0,0,0,0,0,0,0,0,0,0,0,0,0,0],"sum_hessian":[1.1972429E3,1.865249E2,1.01071796E3,5.866593E1,1.2785898E2,5.9894745E2,4.117705E2,4.7836103E0,5.388232E1,1.2211148E2,5.7474966E0,3.5613577E2,2.4281168E2,2.5315993E2,1.586106E2,4.0787792E1,1.3094528E1,1.1299259E2,9.118887E0,2.4807482E0,3.2667482E0,2.8096924E2,7.516651E1,2.2505121E2,1.7760475E1,1.1297068E2,1.4018924E2,3.6914482E1,1.2169611E2,3.851255E1,2.2752426E0,8.437575E0,4.6569524E0,1.1091505E2,2.077545E0,1.4627266E0,7.65616E0,2.0921509E2,7.175416E1,4.114016E1,3.4026352E1,2.2000449E2,5.0467176E0,4.651857E0,1.3108618E1,2.0462032E1,9.2508644E1,1.7135214E0,1.3847572E2,2.8654932E1,8.259548E0,9.516752E1,2.6528595E1],"tree_param":{"num_deleted":"0","num_feature":"30","num_nodes":"53","size_leaf_vector":"1"}},{"base_weights":[-4.3412233E-3,2.6415035E-1,-4.0974525E-1,-9.510652E-2,5.669249E-1,-6.441269E-1,-1.5638597E-2,-3.118891E-1,5.9236556E-1,7.164824E-1,-2.251928E-1,-1.1273841E0,-2.8437343E-1,8.225013E-1,-3.8292983E-1,4.4736677E-1,-5.230422E-1,-5.983593E-1,1.0967996E0,1.1783386E0,5.7102E-1,7.9929656E-1,-7.1289164E-1,-2.635869E-1,-1.2362374E0,-8.695351E-1,3.5878783E-1,1.1080976E0,-1.280311E-1,1.0648133E0,-5.837648E-1,-7.750731E-2,8.470776E-2,-7.258519E-2,1.2156698E-2,6.164353E-2,-9.2124514E-2,-8.444021E-2,1.1708403E-1,1.3262628E-1,4.777301E-3,7.742681E-2,-9.546851E-3,9.846665E-2,-8.656482E-2,-1.7935371E-2,-1.3954075E-1,1.19236745E-1,-1.0316749E-1,-2.8830731E-2,-1.2847541E-1,-9.6957594E-2,9.789638E-2,-6.0608614E-2,7.607332E-2,-1.0735953E-1,1.2899494E-1,1.4507052E-1,-2.4993272E-2,8.743661E-2,-8.174853E-2],"categories":[],"categories_nodes":[],"categories_segments":[],"categories_sizes":[],"default_left":[0,0,0,0,0,0,0,0,0,0,0,0,0,0,0,0,0,0,0,0,0,0,0,0,0,0,0,0,0,0,0,0,0,0,0,0,0,0,0,0,0,0,0,0,0,0,0,0,0,0,0,0,0,0,0,0,0,0,0,0,0],"id":14,"left_children":[1,3,5,7,9,11,13,15,17,19,21,23,25,27,29,31,33,35,37,39,41,43,45,47,49,51,53,55,-1,57,59,-1,-1,-1,-1,-1,-1,-1,-1,-1,-1,-1,-1,-1,-1,-1,-1,-1,-1,-1,-1,-1,-1,-1,-1,-1,-1,-1,-1,-1,-1],"loss_changes":[1.2659033E2,7.6157974E1,4.279087E1,4.799977E1,4.515712E1,5.0189552E1,5.382529E1,3.944423E1,4.7062637E1,2.0807693E1,3.108976E1,1.13003235E1,6.349634E1,3.3417152E1,3.5961094E1,2.6923296E1,2.5165352E1,9.839617E0,8.839546E0,1.258667E1,3.3274734E1,7.0779543E0,1.5011892E1,1.8126385E1,4.6673126E0,1.7259354E1,3.1753685E1,2.0208954E1,0E0,8.054426E0,3.7310062E1,0E0,0E0,0E0,0E0,0E0,0E0,0E0,0E0,0E0,0E0,0E0,0E0,0E0,0E0,0E0,0E0,0E0,0E0,0E0,0E0,0E0,0E0,0E0,0E0,0E0,0E0,0E0,0E0,0E0,0E0],"parents":[2147483647,0,0,1,1,2,2,3,3,4,4,5,5,6,6,7,7,8,8,9,9,10,10,11,11,12,12,13,13,14,14,15,15,16,16,17,17,18,18,19,19,20,20,21,21,22,22,23,23,24,24,25,25,26,26,27,27,29,29,30,30],"right_children":[2,4,6,8,10,12,14,16,18,20,22,24,26,28,30,32,34,36,38,40,42,44,46,48,50,52,54,56,-1,58,60,-1,-1,-1,-1,-1,-1,-1,-1,-1,-1,-1,-1,-1,-1,-1,-1,-1,-1,-1,-1,-1,-1,-1,-1,-1,-1,-1,-1,-1,-1],"split_conditions":[6.506831E-1,2.3968002E-1,2.6922758E0,1.7757624E0,1.1432257E0,-6.4802575E-1,-1.5270562E-1,-1.1231942E0,-7.300401E-1,-6.5329227E0,-2.2169702E0,-7.837077E0,1.8418737E-1,7.48087E-1,-8.64308E0,-4.7100596E0,2.1649942E-1,-2.7610056E0,-3.3144052E0,5.909586E-1,2.0879881E0,3.9405375E0,1.7255065E0,-2.6512735E0,-3.8692663E0,3.5252748E0,-6.8700004E-1,-2.8880014E0,-1.280311E-1,-3.6597962E0,-2.616303E0,-7.750731E-2,8.470776E-2,-7.258519E-2,1.2156698E-2,6.164353E-2,-9.2124514E-2,-8.444021E-2,1.1708403E-1,1.3262628E-1,4.777301E-3,7.742681E-2,-9.546851E-3,9.846665E-2,-8.656482E-2,-1.7935371E-2,-1.3954075E-1,1.19236745E-1,-1.0316749E-1,-2.8830731E-2,-1.2847541E-1,-9.6957594E-2,9.789638E-2,-6.0608614E-2,7.607332E-2,-1.0735953E-1,1.2899494E-1,1.4507052E-1,-2.4993272E-2,8.743661E-2,-8.174853E-2],"split_indices":[17,15,18,21,26,3,1,2,1,24,17,25,24,21,25,4,3,26,6,6,22,22,22,12,6,28,6,22,0,12,26,0,0,0,0,0,0,0,0,0,0,0,0,0,0,0,0,0,0,0,0,0,0,0,0,0,0,0,0,0,0],"split_type":[0,0,0,0,0,0,0,0,0,0,0,0,0,0,0,0,0,0,0,0,0,0,0,0,0,0,0,0,0,0,0,0,0,0,0,0,0,0,0,0,0,0,0,0,0,0,0,0,0,0,0,0,0,0,0,0,0,0,0,0,0],"sum_hessian":[1.1610112E3,6.98654E2,4.623572E2,3.1983728E2,3.7881674E2,2.8953287E2,1.7282433E2,2.4357605E2,7.626123E1,3.1873315E2,6.00836E1,1.2264711E2,1.6688577E2,5.228142E1,1.2054291E2,5.2756744E1,1.908193E2,2.26379E1,5.362333E1,7.464089E1,2.4409225E2,1.9171623E1,4.0911976E1,1.4108857E1,1.0853825E2,8.719864E1,7.9687126E1,4.6446297E1,5.8351264E0,1.4160838E1,1.0638207E2,1.2768283E1,3.998846E1,1.4505534E2,4.5763966E1,4.562657E0,1.8075243E1,1.5878706E0,5.203546E1,6.58517E1,8.789195E0,1.8692659E2,5.716566E1,1.761861E1,1.5530136E0,2.367078E1,1.7241196E1,4.681819E0,9.427038E0,5.6227145E0,1.0291554E2,8.31728E1,4.025837E0,2.3284517E1,5.640261E1,3.196301E0,4.3249992E1,1.0867656E1,3.2931828E0,1.4317468E1,9.2064606E1],"tree_param":{"num_deleted":"0","num_feature":"30","num_nodes":"61","size_leaf_vector":"1"}},{"base_weights":[-4.3638702E-3,7.4310505E-1,-1.3737851E-1,2.774515E-1,9.6705014E-1,-7.151611E-1,-2.7597943E-2,-1.1043371E-1,4.1394055E-1,1.0195299E0,-8.119121E-2,-2.4105719E-1,-1.171689E0,2.42797E-1,-4.145074E-1,6.813478E-1,-4.0194792E-1,1.0772328E0,2.9260507E-1,-1.23622395E-1,9.299864E-2,-8.3453083E-1,5.620445E-1,-1.2740546E0,6.346374E-1,3.3037043E-1,-9.197362E-1,-1.0475018E0,-2.486112E-1,8.05172E-2,-1.0244661E-1,-9.792994E-2,5.7141062E-2,1.09770976E-1,5.088586E-3,-1.7660984E-1,9.2234224E-2,-1.0696226E-1,7.269179E-2,-2.5272354E-2,1.2355931E-1,4.4520684E-2,-1.3240413E-1,-5.401968E-4,9.827897E-2,4.330249E-3,6.570787E-2,-1.2437691E-1,2.798813E-2,8.987125E-2,-1.1158147E-1,-1.2409732E-2,-1.18839584E-1],"categories":[],"categories_nodes":[],"categories_segments":[],"categories_sizes":[],"default_left":[0,0,0,0,0,0,0,0,0,0,0,0,0,0,0,0,0,0,0,0,0,0,0,0,0,0,0,0,0,0,0,0,0,0,0,0,0,0,0,0,0,0,0,0,0,0,0,0,0,0,0,0,0],"id":15,"left_children":[1,3,5,7,9,11,13,-1,15,17,19,21,23,25,27,29,31,33,35,-1,-1,37,39,41,43,45,47,49,51,-1,-1,-1,-1,-1,-1,-1,-1,-1,-1,-1,-1,-1,-1,-1,-1,-1,-1,-1,-1,-1,-1,-1,-1],"loss_changes":[1.11988335E2,1.747625E1,6.0630074E1,1.1143473E1,6.3815613E0,3.275293E1,8.427137E1,0E0,1.16833725E1,4.2616653E0,8.607345E0,3.675527E1,1.5138184E1,4.85821E1,3.453371E1,9.22249E0,8.167446E0,2.0608673E0,1.3812103E1,0E0,0E0,1.6996195E1,1.8394745E1,6.920967E0,1.0801935E0,4.1400227E1,1.3363949E1,1.0109131E1,3.0726458E1,0E0,0E0,0E0,0E0,0E0,0E0,0E0,0E0,0E0,0E0,0E0,0E0,0E0,0E0,0E0,0E0,0E0,0E0,0E0,0E0,0E0,0E0,0E0,0E0],"parents":[2147483647,0,0,1,1,2,2,3,3,4,4,5,5,6,6,8,8,9,9,10,10,11,11,12,12,13,13,14,14,15,15,16,16,17,17,18,18,21,21,22,22,23,23,24,24,25,25,26,26,27,27,28,28],"right_children":[2,4,6,8,10,12,14,-1,16,18,20,22,24,26,28,30,32,34,36,-1,-1,38,40,42,44,46,48,50,52,-1,-1,-1,-1,-1,-1,-1,-1,-1,-1,-1,-1,-1,-1,-1,-1,-1,-1,-1,-1,-1,-1,-1,-1],"split_conditions":[-2.251386E0,1.6730918E-1,-1.7173158E0,-5.6669507E0,2.4396882E0,7.6565874E-1,1.2295742E-1,-1.1043371E-1,3.18919E0,3.141647E0,-8.032157E0,-9.2567556E-2,3.4044456E0,6.0539746E0,-1.183234E0,6.983069E0,7.1343476E-1,3.2423248E0,-2.7603978E-1,-1.23622395E-1,9.299864E-2,1.4238333E0,-1.4578152E-2,-3.4772162E0,1.7391685E-1,-9.2567556E-2,1.4671298E0,-2.8536122E0,3.6958506E0,8.05172E-2,-1.0244661E-1,-9.792994E-2,5.7141062E-2,1.09770976E-1,5.088586E-3,-1.7660984E-1,9.2234224E-2,-1.0696226E-1,7.269179E-2,-2.5272354E-2,1.2355931E-1,4.4520684E-2,-1.3240413E-1,-5.401968E-4,9.827897E-2,4.330249E-3,6.570787E-2,-1.2437691E-1,2.798813E-2,8.987125E-2,-1.1158147E-1,-1.2409732E-2,-1.18839584E-1],"split_indices":[17,15,7,4,1,4,26,0,28,21,4,3,21,25,22,12,9,26,3,0,0,19,28,5,1,3,0,5,26,0,0,0,0,0,0,0,0,0,0,0,0,0,0,0,0,0,0,0,0,0,0,0,0],"split_type":[0,0,0,0,0,0,0,0,0,0,0,0,0,0,0,0,0,0,0,0,0,0,0,0,0,0,0,0,0,0,0,0,0,0,0,0,0,0,0,0,0,0,0,0,0,0,0,0,0,0,0,0,0],"sum_hessian":[1.124341E3,1.6916129E2,9.551797E2,5.56617E1,1.1349958E2,1.5162941E2,8.035503E2,4.3663726E0,5.129533E1,1.0811427E2,5.385306E0,7.513245E1,7.649696E1,4.732135E2,3.303368E2,3.8757477E1,1.2537851E1,9.9716896E1,8.397379E0,2.4099479E0,2.9753578E0,4.3182465E1,3.194998E1,7.26732E1,3.823762E0,4.4072928E2,3.2484238E1,6.7493614E1,2.628432E2,3.6626743E1,2.1307352E0,7.865999E0,4.671852E0,9.769816E1,2.0187385E0,1.544308E0,6.853071E0,3.7805454E1,5.37701E0,1.4741948E1,1.7208033E1,1.8298599E0,7.084334E1,1.6940053E0,2.1297567E0,2.3519958E2,2.0552968E2,2.5546877E1,6.9373603E0,1.876514E0,6.56171E1,2.3309238E2,2.9750809E1],"tree_param":{"num_deleted":"0","num_feature":"30","num_nodes":"53","size_leaf_vector":"1"}},{"base_weights":[-4.576048E-3,2.3866612E-1,-3.7416926E-1,-3.682849E-3,6.0776883E-1,-6.0117203E-1,-4.107164E-3,-5.733542E-1,2.125367E-1,7.175436E-1,-9.3400836E-1,-1.081643E0,-2.5818226E-1,7.634921E-1,-3.449189E-1,-1.0112447E0,1.7766504E-1,-2.1278408E-1,5.0377786E-1,9.6546745E-1,1.862671E-1,2.8340533E-1,-1.2267306E-1,-2.4342422E-1,-1.1940423E0,-8.170965E-1,3.2937574E-1,1.0212998E0,-1.20963015E-1,9.9744505E-1,-5.338134E-1,3.5765458E-2,-1.1557889E-1,-6.336352E-2,8.399674E-2,-9.349445E-2,3.43143E-2,6.449203E-2,-7.4897304E-2,1.0126691E-1,-1.4194334E-1,-4.1017782E-2,8.2636945E-2,8.544996E-2,-7.29941E-2,1.13062E-1,-9.741732E-2,-2.1407891E-2,-1.2465628E-1,-1.0266646E-1,8.141568E-3,-5.037954E-2,7.281808E-2,-1.0133902E-1,1.1838042E-1,1.370486E-1,-2.2999104E-2,7.634389E-2,-7.5005375E-2],"categories":[],"categories_nodes":[],"categories_segments":[],"categories_sizes":[],"default_left":[0,0,0,0,0,0,0,0,0,0,0,0,0,0,0,0,0,0,0,0,0,0,0,0,0,0,0,0,0,0,0,0,0,0,0,0,0,0,0,0,0,0,0,0,0,0,0,0,0,0,0,0,0,0,0,0,0,0,0],"id":16,"left_children":[1,3,5,7,9,11,13,15,17,19,21,23,25,27,29,31,33,35,37,39,41,43,-1,45,47,49,51,53,-1,55,57,-1,-1,-1,-1,-1,-1,-1,-1,-1,-1,-1,-1,-1,-1,-1,-1,-1,-1,-1,-1,-1,-1,-1,-1,-1,-1,-1,-1],"loss_changes":[9.8791084E1,5.9285343E1,3.663714E1,4.9521595E1,4.5128777E1,4.42695E1,4.390817E1,3.6555893E1,3.62087E1,3.219445E1,6.7245703E0,1.0288116E1,5.2497795E1,2.7488096E1,3.0003029E1,1.4268265E1,2.2879766E1,4.81592E1,3.112283E1,2.027568E1,3.0669285E1,3.1011865E0,0E0,1.5692946E1,4.815674E0,1.5485607E1,2.6366253E1,1.6471233E1,0E0,7.0396805E0,2.9336643E1,0E0,0E0,0E0,0E0,0E0,0E0,0E0,0E0,0E0,0E0,0E0,0E0,0E0,0E0,0E0,0E0,0E0,0E0,0E0,0E0,0E0,0E0,0E0,0E0,0E0,0E0,0E0,0E0],"parents":[2147483647,0,0,1,1,2,2,3,3,4,4,5,5,6,6,7,7,8,8,9,9,10,10,11,11,12,12,13,13,14,14,15,15,16,16,17,17,18,18,19,19,20,20,21,21,23,23,24,24,25,25,26,26,27,27,29,29,30,30],"right_children":[2,4,6,8,10,12,14,16,18,20,22,24,26,28,30,32,34,36,38,40,42,44,-1,46,48,50,52,54,-1,56,58,-1,-1,-1,-1,-1,-1,-1,-1,-1,-1,-1,-1,-1,-1,-1,-1,-1,-1,-1,-1,-1,-1,-1,-1,-1,-1,-1,-1],"split_conditions":[6.506831E-1,1.1678774E0,2.6922758E0,-1.0564287E0,2.1661146E0,-6.4802575E-1,-1.5270562E-1,4.256864E-1,1.1367416E0,6.200999E-1,-2.759119E0,-7.837077E0,1.8418737E-1,7.48087E-1,-8.64308E0,-3.6535957E0,-3.751001E-1,-1.5075159E0,2.5278823E0,3.6895661E0,1.8418737E-1,1.8217167E0,-1.2267306E-1,-2.6512735E0,-3.8692663E0,1.0228498E0,-1.7007472E-1,-2.8880014E0,-1.20963015E-1,-3.6597962E0,-2.616303E0,3.5765458E-2,-1.1557889E-1,-6.336352E-2,8.399674E-2,-9.349445E-2,3.43143E-2,6.449203E-2,-7.4897304E-2,1.0126691E-1,-1.4194334E-1,-4.1017782E-2,8.2636945E-2,8.544996E-2,-7.29941E-2,1.13062E-1,-9.741732E-2,-2.1407891E-2,-1.2465628E-1,-1.0266646E-1,8.141568E-3,-5.037954E-2,7.281808E-2,-1.0133902E-1,1.1838042E-1,1.370486E-1,-2.2999104E-2,7.634389E-2,-7.5005375E-2],"split_indices":[17,15,18,7,26,3,1,0,18,6,5,25,24,21,25,8,21,3,2,10,24,22,0,12,6,20,21,22,0,12,26,0,0,0,0,0,0,0,0,0,0,0,0,0,0,0,0,0,0,0,0,0,0,0,0,0,0,0,0],"split_type":[0,0,0,0,0,0,0,0,0,0,0,0,0,0,0,0,0,0,0,0,0,0,0,0,0,0,0,0,0,0,0,0,0,0,0,0,0,0,0,0,0,0,0,0,0,0,0,0,0,0,0,0,0,0,0,0,0,0,0],"sum_hessian":[1.0968983E3,6.61739E2,4.3515924E2,4.0005627E2,2.6168274E2,2.6932556E2,1.6583368E2,1.09611725E2,2.9044455E2,2.4478838E2,1.689437E1,1.112831E2,1.5804247E2,5.0608833E1,1.1522485E2,6.902146E1,4.0590263E1,1.1815848E2,1.7228609E2,1.6634505E2,7.844332E1,3.280945E0,1.3613423E1,1.3532216E1,9.775088E1,8.079531E1,7.7247154E1,4.518709E1,5.4217415E0,1.3685993E1,1.0153886E2,6.451208E0,6.257025E1,1.8262518E1,2.2327745E1,5.10986E1,6.705988E1,1.5527686E2,1.7009228E1,1.6368088E2,2.6641715E0,4.079236E1,3.7650967E1,2.1986184E0,1.0823267E0,4.5081778E0,9.024038E0,5.230606E0,9.252027E1,6.539906E1,1.5396244E1,2.4920582E1,5.2326572E1,2.9547734E0,4.2232315E1,1.0406667E1,3.2793264E0,1.4145824E1,8.7393036E1],"tree_param":{"num_deleted":"0","num_feature":"30","num_nodes":"59","size_leaf_vector":"1"}},{"base_weights":[-5.0387033E-3,6.968239E-1,-1.2403963E-1,2.6565573E-1,9.1848594E-1,-2.1006892E-2,-6.7502606E-1,-2.1463716E-1,6.4836603E-1,1.0315769E0,3.4053573E-1,1.6609925E-1,-4.213094E-1,-7.5648147E-1,9.4641864E-1,3.0081162E-1,-1.3356866E-1,1.0377454E0,-2.1671326E-1,-6.79655E-3,1.0518187E0,7.1632427E-1,-7.827435E-1,2.7839255E-1,-6.002978E-1,-8.43027E-1,3.723958E-1,-1.20250046E-1,-5.6472504E-1,1.152969E-1,-2.1198548E-3,7.1565256E-2,-6.510665E-2,1.10785685E-1,1.898935E-3,-1.0729169E-1,7.40226E-2,1.072964E-1,1.7094782E-2,2.4635696E-3,1.0737065E-1,-1.4132647E-1,6.428742E-2,4.6379928E-2,-3.6393456E-2,1.8397516E-2,-1.2512605E-1,-9.9907674E-2,-7.1170605E-3,8.6479165E-2,-6.1051022E-2,-2.6781349E-2,-1.0178218E-1],"categories":[],"categories_nodes":[],"categories_segments":[],"categories_sizes":[],"default_left":[0,0,0,0,0,0,0,0,0,0,0,0,0,0,0,0,0,0,0,0,0,0,0,0,0,0,0,0,0,0,0,0,0,0,0,0,0,0,0,0,0,0,0,0,0,0,0,0,0,0,0,0,0],"id":17,"left_children":[1,3,5,7,9,11,13,15,17,19,21,23,25,27,29,31,-1,33,35,-1,37,39,41,43,45,47,49,-1,51,-1,-1,-1,-1,-1,-1,-1,-1,-1,-1,-1,-1,-1,-1,-1,-1,-1,-1,-1,-1,-1,-1,-1,-1],"loss_changes":[8.883343E1,1.4492493E1,5.1610107E1,1.002107E1,6.278221E0,5.752784E1,1.9632736E1,1.4612212E1,1.038696E1,1.9485779E0,8.197617E0,4.5220158E1,8.219886E1,1.1032295E1,1.4824843E0,7.4404864E0,0E0,1.4772797E0,9.144392E0,0E0,1.3601913E0,3.4537973E0,5.4148073E0,5.4627262E1,3.454722E1,1.9208E1,4.1944912E1,0E0,1.28638E1,0E0,0E0,0E0,0E0,0E0,0E0,0E0,0E0,0E0,0E0,0E0,0E0,0E0,0E0,0E0,0E0,0E0,0E0,0E0,0E0,0E0,0E0,0E0,0E0],"parents":[2147483647,0,0,1,1,2,2,3,3,4,4,5,5,6,6,7,7,8,8,9,9,10,10,11,11,12,12,13,13,14,14,15,15,17,17,18,18,20,20,21,21,22,22,23,23,24,24,25,25,26,26,28,28],"right_children":[2,4,6,8,10,12,14,16,18,20,22,24,26,28,30,32,-1,34,36,-1,38,40,42,44,46,48,50,-1,52,-1,-1,-1,-1,-1,-1,-1,-1,-1,-1,-1,-1,-1,-1,-1,-1,-1,-1,-1,-1,-1,-1,-1,-1],"split_conditions":[-2.251386E0,1.6730918E-1,2.3732278E0,-3.6119843E-1,3.369328E0,4.9217203E-1,2.9956758E0,1.7377692E0,3.18919E0,-9.514055E0,5.9939563E-1,2.6767163E0,5.510009E-1,-7.6245713E-1,2.021217E0,3.9942734E-2,-1.3356866E-1,9.131413E-1,7.1343476E-1,-6.79655E-3,4.2200837E0,-1.0678377E0,1.5121188E0,1.1432257E0,1.0016186E0,2.9949024E0,-7.575023E-1,-1.20250046E-1,7.516868E-1,1.152969E-1,-2.1198548E-3,7.1565256E-2,-6.510665E-2,1.10785685E-1,1.898935E-3,-1.0729169E-1,7.40226E-2,1.072964E-1,1.7094782E-2,2.4635696E-3,1.0737065E-1,-1.4132647E-1,6.428742E-2,4.6379928E-2,-3.6393456E-2,1.8397516E-2,-1.2512605E-1,-9.9907674E-2,-7.1170605E-3,8.6479165E-2,-6.1051022E-2,-2.6781349E-2,-1.0178218E-1],"split_indices":[17,15,17,4,22,12,28,12,28,18,9,8,3,6,18,29,0,16,9,0,4,5,5,26,28,6,5,0,26,0,0,0,0,0,0,0,0,0,0,0,0,0,0,0,0,0,0,0,0,0,0,0,0],"split_type":[0,0,0,0,0,0,0,0,0,0,0,0,0,0,0,0,0,0,0,0,0,0,0,0,0,0,0,0,0,0,0,0,0,0,0,0,0,0,0,0,0,0,0,0,0,0,0,0,0,0,0,0,0],"sum_hessian":[1.0615544E3,1.5319005E2,9.083643E2,5.2760635E1,1.0042942E2,7.661372E2,1.4222713E2,2.3592165E1,2.916847E1,8.333741E1,1.709201E1,5.224997E2,2.436375E2,1.3593187E2,6.2952657E0,1.6662542E1,6.9296227E0,1.9977045E1,9.191426E0,1.4638395E0,8.187357E1,1.3078831E1,4.013179E0,4.5628162E2,6.62181E1,1.5906155E2,8.457595E1,3.9285088E1,9.6646774E1,5.029994E0,1.2652718E0,1.1777794E1,4.884748E0,1.8608906E1,1.3681382E0,4.7870793E0,4.404347E0,7.9741325E1,2.1322453E0,4.8196554E0,8.259175E0,2.7885334E0,1.2246453E0,3.5429333E2,1.0198827E2,3.0359125E1,3.585898E1,1.3206665E2,2.69949E1,5.6427994E1,2.8147955E1,5.9347675E1,3.7299103E1],"tree_param":{"num_deleted":"0","num_feature":"30","num_nodes":"53","size_leaf_vector":"1"}},{"base_weights":[-5.072465E-3,3.5571295E-1,-2.1611136E-1,1.4244685E-1,8.176695E-1,-4.5169684E-1,2.8255913E-2,-1.0748139E-1,6.958642E-1,8.972633E-1,-8.4236115E-1,-8.8935906E-1,-3.9691202E-2,7.844261E-1,-1.6453713E-1,3.997322E-1,-5.1333773E-1,-1.263507E-1,1.0009084E0,-5.9195167E-1,9.337813E-1,-1.0152265E-1,-2.2487019E-3,-5.6161717E-2,-9.866255E-1,-4.1511613E-1,5.900226E-1,9.4382274E-1,-1.1391751E-1,-1.0952122E0,-6.2095985E-2,8.605494E-2,-3.154869E-2,2.0600574E-4,-1.1284981E-1,7.076145E-2,-1.1002638E-1,1.0999773E-1,1.8476238E-2,1.4335041E-2,-9.998128E-2,9.798675E-2,5.7716444E-3,9.762452E-2,-8.899798E-2,-1.056664E-1,2.4973053E-2,7.116517E-2,-6.180604E-2,8.4929414E-2,-5.511058E-2,1.1508278E-1,-2.4959385E-2,4.35525E-2,-1.22675836E-1,-4.8590783E-2,2.5650192E-2],"categories":[],"categories_nodes":[],"categories_segments":[],"categories_sizes":[],"default_left":[0,0,0,0,0,0,0,0,0,0,0,0,0,0,0,0,0,0,0,0,0,0,0,0,0,0,0,0,0,0,0,0,0,0,0,0,0,0,0,0,0,0,0,0,0,0,0,0,0,0,0,0,0,0,0,0,0],"id":18,"left_children":[1,3,5,7,9,11,13,15,17,19,21,23,25,27,29,31,33,35,37,39,41,-1,-1,43,45,47,49,51,-1,53,55,-1,-1,-1,-1,-1,-1,-1,-1,-1,-1,-1,-1,-1,-1,-1,-1,-1,-1,-1,-1,-1,-1,-1,-1,-1,-1],"loss_changes":[7.884334E1,3.753503E1,3.762433E1,3.640671E1,1.6676811E1,5.9956734E1,4.701726E1,3.7634163E1,2.0656605E1,6.832245E0,8.316355E-1,1.3015038E1,4.1006603E1,2.1163319E1,2.444484E1,2.709351E1,3.2164154E1,1.949055E1,4.63319E0,1.1557024E0,4.509468E0,0E0,0E0,1.629491E1,1.2764343E1,2.5275053E1,1.964363E1,1.5369022E1,0E0,5.655819E0,3.1541973E1,0E0,0E0,0E0,0E0,0E0,0E0,0E0,0E0,0E0,0E0,0E0,0E0,0E0,0E0,0E0,0E0,0E0,0E0,0E0,0E0,0E0,0E0,0E0,0E0,0E0,0E0],"parents":[2147483647,0,0,1,1,2,2,3,3,4,4,5,5,6,6,7,7,8,8,9,9,10,10,11,11,12,12,13,13,14,14,15,15,16,16,17,17,18,18,19,19,20,20,23,23,24,24,25,25,26,26,27,27,29,29,30,30],"right_children":[2,4,6,8,10,12,14,16,18,20,22,24,26,28,30,32,34,36,38,40,42,-1,-1,44,46,48,50,52,-1,54,56,-1,-1,-1,-1,-1,-1,-1,-1,-1,-1,-1,-1,-1,-1,-1,-1,-1,-1,-1,-1,-1,-1,-1,-1,-1,-1],"split_conditions":[-6.1052585E-1,1.8762801E0,1.1950241E0,2.1649942E-1,2.1661146E0,-3.0455783E-1,-1.3655306E0,-5.191867E-1,-9.309414E-1,-3.5754433E0,1.6640925E0,-7.837077E0,-1.0313667E-2,3.763533E0,-1.720859E0,-2.3167307E0,-5.682963E-1,-1.8383257E0,1.2548875E0,-2.26847E0,4.6768184E0,-1.0152265E-1,-2.2487019E-3,-1.270636E0,1.856546E0,-2.8536122E0,1.7085568E0,7.48087E-1,-1.1391751E-1,-3.9750896E0,-1.5359802E0,8.605494E-2,-3.154869E-2,2.0600574E-4,-1.1284981E-1,7.076145E-2,-1.1002638E-1,1.0999773E-1,1.8476238E-2,1.4335041E-2,-9.998128E-2,9.798675E-2,5.7716444E-3,9.762452E-2,-8.899798E-2,-1.056664E-1,2.4973053E-2,7.116517E-2,-6.180604E-2,8.4929414E-2,-5.511058E-2,1.1508278E-1,-2.4959385E-2,4.35525E-2,-1.22675836E-1,-4.8590783E-2,2.5650192E-2],"split_indices":[17,15,18,3,26,3,1,12,0,28,12,25,0,8,22,25,26,17,5,1,22,0,0,12,11,5,5,21,0,6,4,0,0,0,0,0,0,0,0,0,0,0,0,0,0,0,0,0,0,0,0,0,0,0,0,0,0],"split_type":[0,0,0,0,0,0,0,0,0,0,0,0,0,0,0,0,0,0,0,0,0,0,0,0,0,0,0,0,0,0,0,0,0,0,0,0,0,0,0,0,0,0,0,0,0,0,0,0,0,0,0,0,0,0,0,0,0],"sum_hessian":[1.0334984E3,3.811725E2,6.523259E2,2.6167596E2,1.19496544E2,3.3169888E2,3.2062704E2,1.8082124E2,8.085471E1,1.1446763E2,5.028913E0,1.6027963E2,1.7141925E2,6.451571E1,2.5611136E2,8.03811E1,1.0044014E2,2.203837E1,5.881634E1,2.3757083E0,1.1209192E2,3.9564497E0,1.0724635E0,1.6919802E1,1.4335983E2,1.07606705E2,6.3812546E1,6.004916E1,4.466548E0,2.4434395E1,2.3167696E2,4.8761055E1,3.1620052E1,5.5193882E1,4.5246258E1,1.201948E1,1.0018891E1,5.213955E1,6.676792E0,1.078997E0,1.2967113E0,1.06377365E2,5.7145576E0,7.483347E0,9.436454E0,1.3581157E2,7.548262E0,1.6040657E1,9.156605E1,5.2206615E1,1.1605927E1,5.120333E1,8.845829E0,1.7507663E0,2.2683628E1,9.919655E1,1.3248041E2],"tree_param":{"num_deleted":"0","num_feature":"30","num_nodes":"57","size_leaf_vector":"1"}},{"base_weights":[-4.9982984E-3,6.5144205E-1,-1.1078354E-1,2.4754599E-1,8.7163377E-1,-5.2755374E-2,-9.921395E-1,-2.0402023E-1,6.12428E-1,9.907857E-1,3.0175802E-1,-4.8033047E-1,7.8589104E-2,6.707879E-1,-1.1429375E0,2.6798072E-1,-1.2799704E-1,9.8426425E-1,-1.9909762E-1,-1.2189194E-2,1.0137572E0,6.621727E-1,-7.6199275E-1,-7.896407E-1,5.1205505E-2,9.494394E-1,-1.3819954E-2,-5.106413E-3,9.606175E-2,6.547649E-2,-1.1994705E0,6.579047E-2,-6.082691E-2,1.066335E-1,-9.820352E-6,-1.03738345E-1,6.932327E-2,-4.5860573E-3,1.0335028E-1,-1.2219669E-3,1.0289885E-1,-1.327223E-1,5.9530508E-2,-9.4998516E-2,2.926951E-2,7.76509E-2,-4.34895E-2,-6.810458E-2,1.2065133E-1,-2.4448005E-2,3.4303043E-2,-1.257343E-1,9.017139E-3],"categories":[],"categories_nodes":[],"categories_segments":[],"categories_sizes":[],"default_left":[0,0,0,0,0,0,0,0,0,0,0,0,0,0,0,0,0,0,0,0,0,0,0,0,0,0,0,0,0,0,0,0,0,0,0,0,0,0,0,0,0,0,0,0,0,0,0,0,0,0,0,0,0],"id":19,"left_children":[1,3,5,7,9,11,13,15,17,19,21,23,25,27,29,31,-1,33,35,-1,37,39,41,43,45,47,49,-1,-1,-1,51,-1,-1,-1,-1,-1,-1,-1,-1,-1,-1,-1,-1,-1,-1,-1,-1,-1,-1,-1,-1,-1,-1],"loss_changes":[6.961575E1,1.2158024E1,4.4101532E1,8.443451E0,5.788254E0,4.558654E1,1.4126034E1,1.2182511E1,8.697302E0,2.007515E0,6.999414E0,3.139944E1,5.0013676E1,1.1075759E0,5.787018E0,6.2192802E0,0E0,1.5745487E0,7.9632616E0,0E0,1.5606079E0,3.2750897E0,4.435848E0,2.1213722E1,2.5406479E1,2.581176E1,4.6400517E1,0E0,0E0,0E0,3.700859E0,0E0,0E0,0E0,0E0,0E0,0E0,0E0,0E0,0E0,0E0,0E0,0E0,0E0,0E0,0E0,0E0,0E0,0E0,0E0,0E0,0E0,0E0],"parents":[2147483647,0,0,1,1,2,2,3,3,4,4,5,5,6,6,7,7,8,8,9,9,10,10,11,11,12,12,13,13,14,14,15,15,17,17,18,18,20,20,21,21,22,22,23,23,24,24,25,25,26,26,30,30],"right_children":[2,4,6,8,10,12,14,16,18,20,22,24,26,28,30,32,-1,34,36,-1,38,40,42,44,46,48,50,-1,-1,-1,52,-1,-1,-1,-1,-1,-1,-1,-1,-1,-1,-1,-1,-1,-1,-1,-1,-1,-1,-1,-1,-1,-1],"split_conditions":[-2.251386E0,1.6730918E-1,6.169329E0,-3.6119843E-1,3.369328E0,-1.03507E0,-1.898023E0,1.7377692E0,3.18919E0,-9.514055E0,5.9939563E-1,5.774076E-1,-7.342413E0,5.0240993E-1,-2.3431602E0,3.9942734E-2,-1.2799704E-1,6.659629E0,7.1343476E-1,-1.2189194E-2,-4.071842E0,-1.0678377E0,1.5121188E0,1.7267095E0,-5.3772867E-1,-1.2938111E0,1.5707967E-1,-5.106413E-3,9.606175E-2,6.547649E-2,7.998846E0,6.579047E-2,-6.082691E-2,1.066335E-1,-9.820352E-6,-1.03738345E-1,6.932327E-2,-4.5860573E-3,1.0335028E-1,-1.2219669E-3,1.0289885E-1,-1.327223E-1,5.9530508E-2,-9.4998516E-2,2.926951E-2,7.76509E-2,-4.34895E-2,-6.810458E-2,1.2065133E-1,-2.4448005E-2,3.4303043E-2,-1.257343E-1,9.017139E-3],"split_indices":[17,15,25,4,22,28,4,12,28,18,9,3,24,0,11,29,0,12,9,0,7,5,5,0,5,22,3,0,0,0,4,0,0,0,0,0,0,0,0,0,0,0,0,0,0,0,0,0,0,0,0,0,0],"split_type":[0,0,0,0,0,0,0,0,0,0,0,0,0,0,0,0,0,0,0,0,0,0,0,0,0,0,0,0,0,0,0,0,0,0,0,0,0,0,0,0,0,0,0,0,0,0,0,0,0,0,0,0,0],"sum_hessian":[1.00046716E3,1.3813365E2,8.623335E2,4.948603E1,8.864762E1,8.100593E2,5.2274166E1,2.2313017E1,2.7173012E1,7.270712E1,1.5940504E1,1.897372E2,6.2032214E2,4.0595202E0,4.8214645E1,1.6031298E1,6.28172E0,1.848873E1,8.684283E0,1.383586E0,7.132353E1,1.2188402E1,3.752102E0,1.1963429E2,7.0102905E1,5.8620094E1,5.61702E2,1.3989922E0,2.660528E0,1.1473632E0,4.7067284E1,1.1266831E1,4.7644653E0,1.6989004E1,1.4997245E0,4.393924E0,4.2903585E0,1.2805803E0,7.004295E1,4.634515E0,7.553888E0,2.6646135E0,1.0874884E0,1.04304245E2,1.5330044E1,2.7890491E1,4.2212414E1,7.759081E0,5.086101E1,3.4136575E2,2.2033629E2,4.5069828E1,1.9974555E0],"tree_param":{"num_deleted":"0","num_feature":"30","num_nodes":"53","size_leaf_vector":"1"}},{"base_weights":[-4.4815443E-3,1.6621289E-1,-3.6676595E-1,8.76124E-1,7.065324E-2,-1.2050988E-1,-2.6630685E-1,-4.9059308E-1,1.079852E0,-8.800965E-2,7.156944E-1,-5.3445977E-1,1.9061983E-1,-1.2002722E-1,1.013844E-1,2.9827112E-1,1.2743142E0,3.3224884E-1,-2.8303644E-1,9.4729537E-1,-4.623754E-1,-9.626262E-1,-1.980815E-1,-7.964733E-1,3.9220983E-1,9.8543845E-2,-8.07762E-2,1.3185504E-1,1.1581833E-2,-4.148917E-2,7.962708E-2,-3.8508908E-4,-7.064926E-2,-2.6675839E-2,1.1020354E-1,2.4212195E-2,-1.4885621E-1,-1.0973259E-1,3.4699585E-2,8.227629E-3,-1.0253098E-1,9.069823E-2,-9.708478E-2,6.0175907E-2,-6.2508605E-2],"categories":[],"categories_nodes":[],"categories_segments":[],"categories_sizes":[],"default_left":[0,0,0,0,0,0,0,0,0,0,0,0,0,0,0,0,0,0,0,0,0,0,0,0,0,0,0,0,0,0,0,0,0,0,0,0,0,0,0,0,0,0,0,0,0],"id":20,"left_children":[1,3,5,7,9,-1,11,13,15,17,19,21,23,-1,-1,25,27,29,31,33,35,37,39,41,43,-1,-1,-1,-1,-1,-1,-1,-1,-1,-1,-1,-1,-1,-1,-1,-1,-1,-1,-1,-1],"loss_changes":[6.0596313E1,4.5124443E1,2.6108456E1,2.2508389E1,6.0256477E1,0E0,3.459577E1,1.288392E1,1.0108231E1,3.8856144E1,3.21473E1,2.5398582E1,2.1176552E1,0E0,0E0,1.2237756E1,2.6635056E0,5.2460136E1,3.825008E1,1.8601662E1,1.465019E1,1.4124756E1,2.3452595E1,6.260454E0,1.9079903E1,0E0,0E0,0E0,0E0,0E0,0E0,0E0,0E0,0E0,0E0,0E0,0E0,0E0,0E0,0E0,0E0,0E0,0E0,0E0,0E0],"parents":[2147483647,0,0,1,1,2,2,3,3,4,4,6,6,7,7,8,8,9,9,10,10,11,11,12,12,15,15,16,16,17,17,18,18,19,19,20,20,21,21,22,22,23,23,24,24],"right_children":[2,4,6,8,10,-1,12,14,16,18,20,22,24,-1,-1,26,28,30,32,34,36,38,40,42,44,-1,-1,-1,-1,-1,-1,-1,-1,-1,-1,-1,-1,-1,-1,-1,-1,-1,-1,-1,-1],"split_conditions":[1.097884E0,-7.5466723E0,-4.3970594E0,-1.8489361E0,1.5240284E0,-1.2050988E-1,2.6922758E0,-9.777769E-1,-3.5639456E-1,-1.1002067E0,2.1870346E0,-3.0455783E-1,-1.1645045E0,-1.2002722E-1,1.013844E-1,-1.805238E0,1.5240284E0,-1.7961587E0,6.027158E-1,-2.6088302E0,-1.1203085E-1,3.0884287E0,4.660899E0,-3.9750896E0,2.54664E0,9.8543845E-2,-8.07762E-2,1.3185504E-1,1.1581833E-2,-4.148917E-2,7.962708E-2,-3.8508908E-4,-7.064926E-2,-2.6675839E-2,1.1020354E-1,2.4212195E-2,-1.4885621E-1,-1.0973259E-1,3.4699585E-2,8.227629E-3,-1.0253098E-1,9.069823E-2,-9.708478E-2,6.0175907E-2,-6.2508605E-2],"split_indices":[17,24,4,28,0,0,18,10,22,2,5,3,22,0,0,6,0,8,8,3,11,22,25,6,15,0,0,0,0,0,0,0,0,0,0,0,0,0,0,0,0,0,0,0,0],"split_type":[0,0,0,0,0,0,0,0,0,0,0,0,0,0,0,0,0,0,0,0,0,0,0,0,0,0,0,0,0,0,0,0,0,0,0,0,0,0,0,0,0,0,0,0,0],"sum_hessian":[9.7790393E2,6.6508344E2,3.1282047E2,7.7935265E1,5.871482E2,3.229791E1,2.8052255E2,9.9275875E0,6.8007675E1,4.7192966E2,1.1521852E2,1.7667123E2,1.03851326E2,6.882925E0,3.0446622E0,1.4054352E1,5.3953327E1,1.493644E2,3.2256528E2,9.645248E1,1.8766045E1,7.6911285E1,9.975995E1,1.7111797E1,8.6739525E1,8.735874E0,5.3184776E0,5.183586E1,2.1174655E0,5.726522E1,9.2099174E1,1.9500629E2,1.2755899E2,1.0821961E1,8.563051E1,1.158012E1,7.185925E0,6.988541E1,7.0258813E0,7.518079E1,2.4579151E1,1.1988587E0,1.5912938E1,7.2262825E1,1.4476699E1],"tree_param":{"num_deleted":"0","num_feature":"30","num_nodes":"45","size_leaf_vector":"1"}},{"base_weights":[-4.4464357E-3,6.1587816E-1,-1.00081E-1,2.5541955E-1,8.460835E-1,-6.810539E-1,-1.4697933E-2,-3.473192E-1,5.1355463E-1,9.034403E-1,-3.108652E-1,-2.1299887E-1,-1.1243855E0,1.9019987E-1,-3.1642127E-1,9.413328E-2,-7.857944E-1,2.0027881E-2,8.7852836E-1,9.8293906E-1,5.7016596E-2,-1.04444504E-1,6.787158E-2,-7.402438E-1,4.4524348E-1,3.940766E-2,-1.2419584E-1,2.9411936E-1,-5.452889E-1,-9.496861E-1,-1.7206302E-1,7.827326E-2,-1.1407026E-1,-1.0491409E-1,8.879708E-2,-8.636682E-2,1.0106063E-1,1.00917295E-1,-5.2948116E-4,-1.5953487E-1,7.728838E-2,-9.994123E-2,1.0282538E-1,-4.0613167E-2,1.08994536E-1,-9.171398E-2,8.930977E-2,-4.5761466E-3,5.835849E-2,-8.7923E-2,7.650611E-2,3.5593625E-2,-1.04328476E-1,-6.1095017E-3,-1.11477554E-1],"categories":[],"categories_nodes":[],"categories_segments":[],"categories_sizes":[],"default_left":[0,0,0,0,0,0,0,0,0,0,0,0,0,0,0,0,0,0,0,0,0,0,0,0,0,0,0,0,0,0,0,0,0,0,0,0,0,0,0,0,0,0,0,0,0,0,0,0,0,0,0,0,0,0,0],"id":21,"left_children":[1,3,5,7,9,11,13,15,17,19,21,23,25,27,29,-1,31,33,35,37,39,-1,-1,41,43,45,-1,47,49,51,53,-1,-1,-1,-1,-1,-1,-1,-1,-1,-1,-1,-1,-1,-1,-1,-1,-1,-1,-1,-1,-1,-1,-1,-1],"loss_changes":[5.675676E1,1.0388264E1,4.1106964E1,8.150578E0,5.427353E0,2.179457E1,4.480092E1,9.758191E0,6.5170403E0,4.9333763E0,3.9082885E0,1.868415E1,7.478798E0,3.3150536E1,2.6627941E1,0E0,7.825651E0,1.6193468E1,5.666416E0,1.7610092E0,1.001928E1,0E0,0E0,1.4659061E1,1.3695841E1,5.6791124E0,0E0,3.729874E1,2.4208551E1,6.992855E0,2.5026337E1,0E0,0E0,0E0,0E0,0E0,0E0,0E0,0E0,0E0,0E0,0E0,0E0,0E0,0E0,0E0,0E0,0E0,0E0,0E0,0E0,0E0,0E0,0E0,0E0],"parents":[2147483647,0,0,1,1,2,2,3,3,4,4,5,5,6,6,7,7,8,8,9,9,10,10,11,11,12,12,13,13,14,14,16,16,17,17,18,18,19,19,20,20,23,23,24,24,25,25,27,27,28,28,29,29,30,30],"right_children":[2,4,6,8,10,12,14,16,18,20,22,24,26,28,30,-1,32,34,36,38,40,-1,-1,42,44,46,-1,48,50,52,54,-1,-1,-1,-1,-1,-1,-1,-1,-1,-1,-1,-1,-1,-1,-1,-1,-1,-1,-1,-1,-1,-1,-1,-1],"split_conditions":[-2.251386E0,3.621756E-1,-1.9182925E0,-1.6214986E-1,2.4396882E0,7.6565874E-1,1.2295742E-1,-2.5536296E0,-2.4796672E-1,3.141647E0,-8.032157E0,-9.2567556E-2,-2.4137938E0,2.4318E0,-1.183234E0,9.413328E-2,-2.304485E0,1.4842632E-1,-3.0334916E0,3.2423248E0,-2.7603978E-1,-1.04444504E-1,6.787158E-2,1.7870578E0,-1.4578152E-2,1.0682824E0,-1.2419584E-1,4.985964E-1,3.2435336E0,-1.7811975E0,3.6958506E0,7.827326E-2,-1.1407026E-1,-1.0491409E-1,8.879708E-2,-8.636682E-2,1.0106063E-1,1.00917295E-1,-5.2948116E-4,-1.5953487E-1,7.728838E-2,-9.994123E-2,1.0282538E-1,-4.0613167E-2,1.08994536E-1,-9.171398E-2,8.930977E-2,-4.5761466E-3,5.835849E-2,-8.7923E-2,7.650611E-2,3.5593625E-2,-1.04328476E-1,-6.1095017E-3,-1.11477554E-1],"split_indices":[17,15,7,11,1,4,26,12,21,21,4,3,5,8,22,0,29,7,6,26,3,0,0,19,28,0,0,28,7,14,26,0,0,0,0,0,0,0,0,0,0,0,0,0,0,0,0,0,0,0,0,0,0,0,0],"split_type":[0,0,0,0,0,0,0,0,0,0,0,0,0,0,0,0,0,0,0,0,0,0,0,0,0,0,0,0,0,0,0,0,0,0,0,0,0,0,0,0,0,0,0,0,0,0,0,0,0,0,0,0,0,0,0],"sum_hessian":[9.546785E2,1.2679497E2,8.278836E2,5.023923E1,7.655573E1,1.0518637E2,7.226972E2,1.4960756E1,3.5278473E1,7.314845E1,3.4072812E0,5.188662E1,5.3299747E1,4.3062976E2,2.9206744E2,3.5070164E0,1.145374E1,1.5446371E1,1.9832102E1,6.6720566E1,6.4278903E0,1.9249026E0,1.4823787E0,2.87409E1,2.3145721E1,4.9515643E0,4.8348183E1,3.7784323E2,5.278653E1,5.3183887E1,2.3888358E2,1.8909926E0,9.562748E0,6.8273654E0,8.619005E0,1.0072135E0,1.8824888E1,6.497455E1,1.7460145E0,1.5716509E0,4.85624E0,2.5446644E1,3.2942557E0,1.0133609E1,1.3012113E1,2.3000581E0,2.6515064E0,1.7417484E2,2.036684E2,4.2328243E1,1.0458286E1,3.3701625E0,4.9813725E1,2.146783E2,2.4205273E1],"tree_param":{"num_deleted":"0","num_feature":"30","num_nodes":"55","size_leaf_vector":"1"}},{"base_weights":[-4.4691185E-3,5.9095985E-1,-9.2612624E-2,2.1903747E-1,8.093806E-1,-6.578544E-1,-1.4487134E-2,-2.0687826E-1,5.6769276E-1,9.40088E-1,2.352843E-1,-2.0461567E-1,-1.0978931E0,2.1452852E-1,-2.4224952E-1,2.1492042E-1,-1.1928052E-1,9.111684E-1,-1.5998237E-1,-1.7593428E-2,9.665979E-1,5.8712715E-1,-7.656277E-1,-7.343728E-1,4.1904068E-1,4.9959246E-2,-1.2161541E-1,2.9034176E-1,-8.465053E-1,-6.140738E-1,1.7137982E-2,-1.2046856E-1,4.1768193E-2,9.933131E-2,-8.158553E-4,-9.781669E-2,6.4730175E-2,9.952143E-2,1.6313646E-3,8.518142E-2,-3.0667106E-2,3.7390552E-2,-1.21990286E-1,4.612824E-2,-1.01898074E-1,-8.9478634E-2,8.7238476E-2,-8.821411E-2,8.6544365E-2,-8.8245515E-3,5.1975407E-2,-1.11694075E-1,1.5906418E-2,-1.12299584E-1,-2.3468366E-2,1.4514226E-2,-1.06768966E-1],"categories":[],"categories_nodes":[],"categories_segments":[],"categories_sizes":[],"default_left":[0,0,0,0,0,0,0,0,0,0,0,0,0,0,0,0,0,0,0,0,0,0,0,0,0,0,0,0,0,0,0,0,0,0,0,0,0,0,0,0,0,0,0,0,0,0,0,0,0,0,0,0,0,0,0,0,0],"id":22,"left_children":[1,3,5,7,9,11,13,15,17,19,21,23,25,27,29,31,-1,33,35,-1,37,39,41,43,45,47,-1,49,51,53,55,-1,-1,-1,-1,-1,-1,-1,-1,-1,-1,-1,-1,-1,-1,-1,-1,-1,-1,-1,-1,-1,-1,-1,-1,-1,-1],"loss_changes":[4.9020695E1,9.606678E0,3.5916412E1,6.9382925E0,5.4447594E0,1.9473896E1,3.7387684E1,9.159269E0,6.525217E0,1.9798241E0,5.850579E0,1.6788494E1,6.8324013E0,2.899813E1,3.466762E1,5.0628796E0,0E0,1.328824E0,6.6009827E0,0E0,1.6128006E0,3.0797472E0,2.745757E0,9.772098E0,1.4806063E1,5.0352807E0,0E0,2.9084564E1,6.729248E0,2.825296E1,2.9683687E1,0E0,0E0,0E0,0E0,0E0,0E0,0E0,0E0,0E0,0E0,0E0,0E0,0E0,0E0,0E0,0E0,0E0,0E0,0E0,0E0,0E0,0E0,0E0,0E0,0E0,0E0],"parents":[2147483647,0,0,1,1,2,2,3,3,4,4,5,5,6,6,7,7,8,8,9,9,10,10,11,11,12,12,13,13,14,14,15,15,17,17,18,18,20,20,21,21,22,22,23,23,24,24,25,25,27,27,28,28,29,29,30,30],"right_children":[2,4,6,8,10,12,14,16,18,20,22,24,26,28,30,32,-1,34,36,-1,38,40,42,44,46,48,-1,50,52,54,56,-1,-1,-1,-1,-1,-1,-1,-1,-1,-1,-1,-1,-1,-1,-1,-1,-1,-1,-1,-1,-1,-1,-1,-1,-1,-1],"split_conditions":[-2.251386E0,1.6730918E-1,-1.9460852E0,-3.6119843E-1,3.369328E0,7.6565874E-1,-3.5627136E-1,1.7377692E0,3.18919E0,-9.514055E0,5.9939563E-1,-2.036005E0,-2.4137938E0,6.0539746E0,1.4719983E0,-1.3828826E0,-1.1928052E-1,6.659629E0,7.1343476E-1,-1.7593428E-2,4.2200837E0,-3.5241783E0,-6.248808E-1,-1.7628008E0,-2.2508762E0,1.0682824E0,-1.2161541E-1,-1.0904869E0,1.4671298E0,-6.467707E-1,3.6958506E0,-1.2046856E-1,4.1768193E-2,9.933131E-2,-8.158553E-4,-9.781669E-2,6.4730175E-2,9.952143E-2,1.6313646E-3,8.518142E-2,-3.0667106E-2,3.7390552E-2,-1.21990286E-1,4.612824E-2,-1.01898074E-1,-8.9478634E-2,8.7238476E-2,-8.821411E-2,8.6544365E-2,-8.8245515E-3,5.1975407E-2,-1.11694075E-1,1.5906418E-2,-1.12299584E-1,-2.3468366E-2,1.4514226E-2,-1.06768966E-1],"split_indices":[17,15,7,4,22,4,26,12,28,18,9,21,5,25,18,18,0,12,9,0,4,25,12,6,3,0,0,3,0,1,26,0,0,0,0,0,0,0,0,0,0,0,0,0,0,0,0,0,0,0,0,0,0,0,0,0,0],"split_type":[0,0,0,0,0,0,0,0,0,0,0,0,0,0,0,0,0,0,0,0,0,0,0,0,0,0,0,0,0,0,0,0,0,0,0,0,0,0,0,0,0,0,0,0,0,0,0,0,0,0,0,0,0,0,0,0,0],"sum_hessian":[9.319837E2,1.1943941E2,8.125443E2,4.493234E1,7.4507065E1,9.7767944E1,7.1477637E2,2.0408295E1,2.4524044E1,6.0170284E1,1.43367815E1,4.888329E1,4.888465E1,3.5643658E2,3.5833978E2,1.4841027E1,5.567268E0,1.648885E1,8.035195E0,1.2653366E0,5.8904945E1,1.091376E1,3.4230218E0,2.6335445E1,2.2547844E1,4.620001E0,4.4264652E1,3.333447E2,2.3091873E1,1.466927E2,2.1164708E2,1.2372444E0,1.3603784E1,1.506249E1,1.4263585E0,3.8855274E0,4.149668E0,5.713707E1,1.7678765E0,8.456459E0,2.4573014E0,1.0260727E0,2.396949E0,4.9441233E0,2.1391323E1,5.534545E0,1.7013298E1,2.1177125E0,2.5022883E0,1.2601085E2,2.0733386E2,1.811052E1,4.9813533E0,6.1814045E1,8.487866E1,1.9008427E2,2.1562794E1],"tree_param":{"num_deleted":"0","num_feature":"30","num_nodes":"57","size_leaf_vector":"1"}},{"base_weights":[-5.0217477E-3,1.7656922E-1,-2.7861044E-1,-6.9967836E-2,4.3807316E-1,-4.9328408E-1,1.9467844E-2,1.5439156E-1,-6.387944E-1,9.419445E-1,1.8112022E-1,-7.6472455E-1,4.0238716E-2,-5.3019536E-1,4.3084815E-1,7.204454E-1,-1.02069505E-1,-7.6648015E-1,4.6106187E-1,1.0670183E0,-5.2122682E-2,3.5451728E-1,-5.201165E-1,-9.7616E-1,-2.0814915E-1,5.5698216E-1,-9.261332E-1,-8.294335E-1,7.0357466E-1,6.1332136E-1,-9.821987E-1,9.54967E-2,-4.8612367E-2,-2.717485E-2,7.750137E-2,-3.643834E-2,-1.10894024E-1,-7.321156E-2,8.066454E-2,1.1314857E-1,4.2568702E-2,-9.0025686E-2,6.149919E-2,1.1485257E-1,1.5210047E-2,6.685551E-2,-8.86445E-2,-1.0489758E-1,4.6986725E-2,-1.3776515E-1,5.7006657E-2,1.0427731E-1,-8.004325E-3,-1.2080447E-1,1.1888578E-2,1.4169799E-1,-9.785266E-2,-6.2221415E-2,1.07786015E-1,-2.3307975E-3,9.4081715E-2,1.0231663E-1,-1.3619189E-1],"categories":[],"categories_nodes":[],"categories_segments":[],"categories_sizes":[],"default_left":[0,0,0,0,0,0,0,0,0,0,0,0,0,0,0,0,0,0,0,0,0,0,0,0,0,0,0,0,0,0,0,0,0,0,0,0,0,0,0,0,0,0,0,0,0,0,0,0,0,0,0,0,0,0,0,0,0,0,0,0,0,0,0],"id":23,"left_children":[1,3,5,7,9,11,13,15,17,19,21,23,25,27,29,31,33,35,37,39,41,43,45,47,49,51,53,55,57,59,61,-1,-1,-1,-1,-1,-1,-1,-1,-1,-1,-1,-1,-1,-1,-1,-1,-1,-1,-1,-1,-1,-1,-1,-1,-1,-1,-1,-1,-1,-1,-1,-1],"loss_changes":[4.5392323E1,3.5436836E1,2.3333544E1,3.6284992E1,3.4351696E1,3.0722504E1,3.495275E1,2.9709667E1,1.16441E1,1.1222397E1,2.1806713E1,1.6332672E1,3.6677372E1,2.5017706E1,2.3391241E1,1.8511063E1,2.1249577E1,9.566982E0,4.296338E0,2.8186493E0,6.772372E0,2.283516E1,1.6120396E1,1.1186546E1,3.714977E1,1.48784E1,7.6872635E0,1.9379768E1,7.349695E0,1.6470013E1,9.383161E0,0E0,0E0,0E0,0E0,0E0,0E0,0E0,0E0,0E0,0E0,0E0,0E0,0E0,0E0,0E0,0E0,0E0,0E0,0E0,0E0,0E0,0E0,0E0,0E0,0E0,0E0,0E0,0E0,0E0,0E0,0E0,0E0],"parents":[2147483647,0,0,1,1,2,2,3,3,4,4,5,5,6,6,7,7,8,8,9,9,10,10,11,11,12,12,13,13,14,14,15,15,16,16,17,17,18,18,19,19,20,20,21,21,22,22,23,23,24,24,25,25,26,26,27,27,28,28,29,29,30,30],"right_children":[2,4,6,8,10,12,14,16,18,20,22,24,26,28,30,32,34,36,38,40,42,44,46,48,50,52,54,56,58,60,62,-1,-1,-1,-1,-1,-1,-1,-1,-1,-1,-1,-1,-1,-1,-1,-1,-1,-1,-1,-1,-1,-1,-1,-1,-1,-1,-1,-1,-1,-1,-1,-1],"split_conditions":[6.506831E-1,-3.672281E-1,5.720719E-2,3.2582113E-1,-6.979442E-1,1.0805058E0,2.404831E-1,-4.3086333E0,7.6120286E0,2.8286257E0,-4.7545323E-1,2.8421104E0,-2.046823E-1,3.1190686E0,2.7140214E0,3.0298605E0,2.5095572E0,-7.935256E-1,-1.9270797E0,3.3512914E0,1.401138E0,-5.576556E0,-3.2005224E0,3.5959496E0,-4.161494E-1,-4.6407223E0,2.4166949E0,-2.3431602E0,-1.03612326E-1,-1.7007472E-1,-1.9513779E0,9.54967E-2,-4.8612367E-2,-2.717485E-2,7.750137E-2,-3.643834E-2,-1.10894024E-1,-7.321156E-2,8.066454E-2,1.1314857E-1,4.2568702E-2,-9.0025686E-2,6.149919E-2,1.1485257E-1,1.5210047E-2,6.685551E-2,-8.86445E-2,-1.0489758E-1,4.6986725E-2,-1.3776515E-1,5.7006657E-2,1.0427731E-1,-8.004325E-3,-1.2080447E-1,1.1888578E-2,1.4169799E-1,-9.785266E-2,-6.2221415E-2,1.07786015E-1,-2.3307975E-3,9.4081715E-2,1.0231663E-1,-1.3619189E-1],"split_indices":[17,0,24,26,5,22,6,24,18,22,12,7,10,3,15,12,6,5,0,28,6,25,17,28,8,24,4,11,23,21,13,0,0,0,0,0,0,0,0,0,0,0,0,0,0,0,0,0,0,0,0,0,0,0,0,0,0,0,0,0,0,0,0],"split_type":[0,0,0,0,0,0,0,0,0,0,0,0,0,0,0,0,0,0,0,0,0,0,0,0,0,0,0,0,0,0,0,0,0,0,0,0,0,0,0,0,0,0,0,0,0,0,0,0,0,0,0,0,0,0,0,0,0,0,0,0,0,0,0],"sum_hessian":[9.116811E2,5.48185E2,3.634961E2,2.8254425E2,2.6564072E2,2.1093065E2,1.5256546E2,2.031467E2,7.9397545E1,8.881443E1,1.768263E2,1.3951581E2,7.141483E1,6.518291E1,8.7382545E1,6.2777264E1,1.4036943E2,7.14104E1,7.987145E0,7.882346E1,9.990972E0,1.4216672E2,3.4659576E1,1.0056041E2,3.8955406E1,4.680868E1,2.4606148E1,5.272317E1,1.2459735E1,7.789019E1,9.492358E0,5.273555E1,1.0041715E1,1.18194E2,2.217544E1,3.3794678E1,3.7615726E1,1.5426003E0,6.444545E0,7.0929276E1,7.894185E0,4.244835E0,5.7461367E0,2.7930668E1,1.14236046E2,7.9707785E0,2.6688799E1,9.600079E1,4.5596156E0,1.5256969E1,2.3698437E1,2.6195354E1,2.0613327E1,1.925562E1,5.350529E0,2.7521412E0,4.9971027E1,2.5972795E0,9.862455E0,2.6773388E1,5.1116802E1,1.2414623E0,8.250896E0],"tree_param":{"num_deleted":"0","num_feature":"30","num_nodes":"63","size_leaf_vector":"1"}},{"base_weights":[-4.6530007E-3,4.7089806E-1,-9.963595E-2,1.9868448E-1,8.339548E-1,-2.1424744E-2,-6.8031037E-1,-1.2184936E-1,2.8438166E-1,8.761137E-1,-4.7362357E-2,7.930871E-2,-5.433342E-1,-9.767353E-1,6.4225525E-2,4.489737E-1,-4.5324683E-1,3.750645E-1,1.0039475E0,7.642947E-1,1.2847482E-3,5.278817E-1,-6.516403E-1,-1.1013391E0,7.0225096E-1,-3.2037216E-1,1.0842175E0,1.5003087E-2,8.568222E-2,9.820449E-3,-1.3273619E-1,7.742326E-2,-8.910251E-2,-2.0744037E-2,1.0409975E-1,1.1399456E-1,-2.0737294E-2,5.2714843E-2,-1.4621026E-2,1.2492078E-1,-2.9419875E-2,-9.234174E-2,-2.1248756E-2,2.8655792E-2,-1.198897E-1,1.8428205E-1,-7.521886E-2,-7.357184E-2,1.0196369E-1,3.1145315E-3,1.2624247E-1],"categories":[],"categories_nodes":[],"categories_segments":[],"categories_sizes":[],"default_left":[0,0,0,0,0,0,0,0,0,0,0,0,0,0,0,0,0,0,0,0,0,0,0,0,0,0,0,0,0,0,0,0,0,0,0,0,0,0,0,0,0,0,0,0,0,0,0,0,0,0,0],"id":24,"left_children":[1,3,5,7,9,11,13,-1,15,17,-1,19,21,23,25,27,29,31,33,35,37,39,41,43,45,47,49,-1,-1,-1,-1,-1,-1,-1,-1,-1,-1,-1,-1,-1,-1,-1,-1,-1,-1,-1,-1,-1,-1,-1,-1],"loss_changes":[4.00951E1,1.443932E1,3.3585644E1,1.0763046E1,3.8885155E0,3.4376675E1,1.9437603E1,0E0,1.012122E1,3.5558052E0,0E0,2.9301725E1,1.2616627E1,1.392247E1,1.0522122E1,8.075572E0,7.55375E0,7.8036447E0,2.3845596E0,2.0700134E1,3.8331615E1,6.454831E0,1.1323082E1,8.318466E0,9.602352E0,1.1662806E1,1.3362751E0,0E0,0E0,0E0,0E0,0E0,0E0,0E0,0E0,0E0,0E0,0E0,0E0,0E0,0E0,0E0,0E0,0E0,0E0,0E0,0E0,0E0,0E0,0E0,0E0],"parents":[2147483647,0,0,1,1,2,2,3,3,4,4,5,5,6,6,8,8,9,9,11,11,12,12,13,13,14,14,15,15,16,16,17,17,18,18,19,19,20,20,21,21,22,22,23,23,24,24,25,25,26,26],"right_children":[2,4,6,8,10,12,14,-1,16,18,-1,20,22,24,26,28,30,32,34,36,38,40,42,44,46,48,50,-1,-1,-1,-1,-1,-1,-1,-1,-1,-1,-1,-1,-1,-1,-1,-1,-1,-1,-1,-1,-1,-1,-1,-1],"split_conditions":[-1.8882074E0,1.4496871E0,3.206347E0,-4.7363667E0,2.9018369E0,2.3732278E0,1.1500916E0,-1.2184936E-1,5.9751725E-1,-1.7146664E0,-4.7362357E-2,-7.5466723E0,-8.64308E0,1.6417421E0,-4.7604948E-1,-4.8669773E-1,2.3419569E0,1.0109795E0,-4.1407166E0,-2.1937849E-1,-1.2784047E0,-3.6597962E0,1.6680193E-1,-1.8719318E0,-4.191925E0,3.6177583E0,-1.6791031E0,1.5003087E-2,8.568222E-2,9.820449E-3,-1.3273619E-1,7.742326E-2,-8.910251E-2,-2.0744037E-2,1.0409975E-1,1.1399456E-1,-2.0737294E-2,5.2714843E-2,-1.4621026E-2,1.2492078E-1,-2.9419875E-2,-9.234174E-2,-2.1248756E-2,2.8655792E-2,-1.198897E-1,1.8428205E-1,-7.521886E-2,-7.357184E-2,1.0196369E-1,3.1145315E-3,1.2624247E-1],"split_indices":[17,15,12,3,26,17,3,0,29,0,0,24,25,29,0,3,2,10,7,6,5,12,21,29,0,3,10,0,0,0,0,0,0,0,0,0,0,0,0,0,0,0,0,0,0,0,0,0,0,0,0],"split_type":[0,0,0,0,0,0,0,0,0,0,0,0,0,0,0,0,0,0,0,0,0,0,0,0,0,0,0,0,0,0,0,0,0,0,0,0,0,0,0,0,0,0,0,0,0,0,0,0,0,0,0],"sum_hessian":[8.8562506E2,1.4678067E2,7.3884436E2,8.476935E1,6.201132E1,6.520557E2,8.678867E1,4.079977E0,8.068937E1,6.0394066E1,1.6172519E0,5.472746E2,1.0478112E2,6.185159E1,2.4937082E1,6.6289154E1,1.4400218E1,1.3076039E1,4.7318027E1,5.5063847E1,4.9221072E2,9.265496E0,9.5515625E1,5.7898758E1,3.9528348E0,1.8607033E1,6.3300505E0,3.904096E1,2.7248194E1,9.374069E0,5.026149E0,1.0237031E1,2.839008E0,1.2677824E0,4.6050247E1,3.958639E1,1.5477456E1,1.0725186E2,3.8495886E2,4.658433E0,4.6070633E0,5.832036E1,3.719527E1,3.6752949E0,5.422346E1,2.0658035E0,1.8870314E0,1.4548554E1,4.0584774E0,1.0861974E0,5.243853E0],"tree_param":{"num_deleted":"0","num_feature":"30","num_nodes":"51","size_leaf_vector":"1"}},{"base_weights":[-4.102156E-3,2.6503974E-1,-1.5286085E-1,8.730423E-2,6.915702E-1,-5.539685E-1,-3.938739E-2,-1.22437775E-1,5.873689E-1,7.710239E-1,-8.0396307E-1,8.90259E-2,-8.4756815E-1,-1.0069167E-1,8.155386E-1,3.1720164E-1,-4.7128704E-1,-1.2937154E-1,8.8709927E-1,9.4746214E-1,3.240847E-1,-1.8189965E-2,-9.126719E-2,-5.0198793E-1,6.367419E-1,-1.0057604E0,-1.2717908E-2,-6.613205E-1,-1.8227039E-2,-2.3715955E-1,1.1570814E0,8.316857E-2,-3.0606603E-2,-2.4432966E-3,-1.0518696E-1,6.2225875E-2,-9.343537E-2,9.999104E-2,7.2191334E-3,1.02259986E-1,-7.520272E-2,-4.907164E-2,7.333333E-2,5.0359447E-2,-1.0665088E-1,-6.418311E-2,9.034752E-2,-1.11081794E-1,2.059784E-2,-1.0254436E-1,8.196028E-2,-1.1319804E-1,-1.933453E-2,-2.6884574E-2,2.3993274E-2,6.50925E-2,-1.1567824E-1,1.2770961E-1,2.1924835E-2],"categories":[],"categories_nodes":[],"categories_segments":[],"categories_sizes":[],"default_left":[0,0,0,0,0,0,0,0,0,0,0,0,0,0,0,0,0,0,0,0,0,0,0,0,0,0,0,0,0,0,0,0,0,0,0,0,0,0,0,0,0,0,0,0,0,0,0,0,0,0,0,0,0,0,0,0,0,0,0],"id":25,"left_children":[1,3,5,7,9,11,13,15,17,19,21,23,25,27,29,31,33,35,37,39,41,-1,-1,43,45,47,49,51,53,55,57,-1,-1,-1,-1,-1,-1,-1,-1,-1,-1,-1,-1,-1,-1,-1,-1,-1,-1,-1,-1,-1,-1,-1,-1,-1,-1,-1,-1],"loss_changes":[3.477437E1,2.3378515E1,2.543743E1,2.308198E1,1.1408813E1,2.3346931E1,2.2990147E1,2.3980688E1,1.4078394E1,6.5319366E0,1.768353E-1,1.3121455E1,1.1176399E1,1.8884483E1,1.0828785E1,2.249071E1,2.255587E1,1.2706085E1,4.15292E0,8.642715E0,9.051918E0,0E0,0E0,1.1652701E1,7.7302237E0,9.29454E0,1.3070555E1,1.1319069E1,2.3184837E1,7.30369E0,2.233797E0,0E0,0E0,0E0,0E0,0E0,0E0,0E0,0E0,0E0,0E0,0E0,0E0,0E0,0E0,0E0,0E0,0E0,0E0,0E0,0E0,0E0,0E0,0E0,0E0,0E0,0E0,0E0,0E0],"parents":[2147483647,0,0,1,1,2,2,3,3,4,4,5,5,6,6,7,7,8,8,9,9,10,10,11,11,12,12,13,13,14,14,15,15,16,16,17,17,18,18,19,19,20,20,23,23,24,24,25,25,26,26,27,27,28,28,29,29,30,30],"right_children":[2,4,6,8,10,12,14,16,18,20,22,24,26,28,30,32,34,36,38,40,42,-1,-1,44,46,48,50,52,54,56,58,-1,-1,-1,-1,-1,-1,-1,-1,-1,-1,-1,-1,-1,-1,-1,-1,-1,-1,-1,-1,-1,-1,-1,-1,-1,-1,-1,-1],"split_conditions":[-6.1052585E-1,1.8762801E0,-7.7737904E-1,2.1649942E-1,2.1661146E0,-9.3890345E-1,7.2899585E0,-6.623484E-1,-9.309414E-1,6.200999E-1,-2.5201442E0,1.7287827E-1,1.76942E0,-1.720859E0,-7.5049967E-1,-2.7195323E0,-5.682963E-1,-1.8383257E0,1.2548875E0,3.3111286E0,-5.3899604E-1,-1.8189965E-2,-9.126719E-2,-8.850841E-1,-3.204181E-1,3.9117365E0,-1.5182214E0,1.3808073E-1,5.097371E-1,-8.2889706E-1,1.3064185E0,8.316857E-2,-3.0606603E-2,-2.4432966E-3,-1.0518696E-1,6.2225875E-2,-9.343537E-2,9.999104E-2,7.2191334E-3,1.02259986E-1,-7.520272E-2,-4.907164E-2,7.333333E-2,5.0359447E-2,-1.0665088E-1,-6.418311E-2,9.034752E-2,-1.11081794E-1,2.059784E-2,-1.0254436E-1,8.196028E-2,-1.1319804E-1,-1.933453E-2,-2.6884574E-2,2.3993274E-2,6.50925E-2,-1.1567824E-1,1.2770961E-1,2.1924835E-2],"split_indices":[17,15,7,3,26,8,4,12,0,6,28,28,0,22,24,25,26,17,5,8,14,0,0,20,23,6,21,27,4,0,25,0,0,0,0,0,0,0,0,0,0,0,0,0,0,0,0,0,0,0,0,0,0,0,0,0,0,0,0],"split_type":[0,0,0,0,0,0,0,0,0,0,0,0,0,0,0,0,0,0,0,0,0,0,0,0,0,0,0,0,0,0,0,0,0,0,0,0,0,0,0,0,0,0,0,0,0,0,0,0,0,0,0,0,0,0,0,0,0,0,0],"sum_hessian":[8.665396E2,3.08181E2,5.5835864E2,2.1838466E2,8.979634E1,1.2227108E2,4.3608752E2,1.543858E2,6.3998848E1,8.572637E1,4.0699654E0,3.854746E1,8.3723625E1,4.0773242E2,2.8355097E1,6.8344696E1,8.604111E1,1.9039167E1,4.495968E1,6.0659805E1,2.5066566E1,1.0031164E0,3.066849E0,1.8581041E1,1.9966415E1,7.0214294E1,1.3509333E1,5.13839E1,3.5634854E2,7.0209255E0,2.1334171E1,3.725648E1,3.108822E1,4.920886E1,3.683225E1,9.963245E0,9.075921E0,3.9293144E1,5.6665363E0,5.8472897E1,2.1869097E0,8.314196E0,1.6752369E1,6.719502E0,1.186154E1,3.2036433E0,1.6762772E1,6.468905E1,5.5252414E0,5.9895377E0,7.519795E0,2.4911047E1,2.647285E1,1.8079416E2,1.7555438E2,3.7203484E0,3.300577E0,1.859306E1,2.7411125E0],"tree_param":{"num_deleted":"0","num_feature":"30","num_nodes":"59","size_leaf_vector":"1"}},{"base_weights":[-4.085342E-3,6.963093E-2,-5.133163E-1,6.914043E-1,1.2670027E-4,-6.470337E-1,3.2708296E-1,1.0993751E0,-1.5923552E-1,-1.13748185E-1,5.774738E-1,-7.628735E-1,4.4291764E-1,8.410443E-1,-3.583109E-1,-3.6601257E-2,1.1598881E0,-8.323265E-1,6.4018446E-1,-5.8090186E-1,1.4868194E-3,8.503089E-1,-3.2064945E-1,5.824664E-1,-8.4246343E-1,1.2451081E0,-9.490416E-2,-1.587961E-2,1.0127556E0,-1.0993451E-1,7.569684E-1,1.18771575E-1,4.4255136E-3,4.6059337E-2,-1.2807456E-1,-8.7464176E-2,1.0986354E-1,-9.212113E-2,1.8868849E-3,-7.882943E-3,